<?xml version="1.0"?>
<opencv_storage>
<my_nn type_id="opencv-ml-ann-mlp">
  <layer_sizes type_id="opencv-matrix">
    <rows>1</rows>
    <cols>3</cols>
    <dt>i</dt>
    <data>
      200 30 34</data></layer_sizes>
  <activation_function>SIGMOID_SYM</activation_function>
  <f_param1>1.</f_param1>
  <f_param2>1.</f_param2>
  <min_val>-9.4999999999999996e-001</min_val>
  <max_val>9.4999999999999996e-001</max_val>
  <min_val1>-9.7999999999999998e-001</min_val1>
  <max_val1>9.7999999999999998e-001</max_val1>
  <training_params>
    <train_method>BACKPROP</train_method>
    <dw_scale>1.0000000000000001e-001</dw_scale>
    <moment_scale>1.0000000000000001e-001</moment_scale>
    <term_criteria><epsilon>1.0000000474974513e-003</epsilon>
      <iterations>1000</iterations></term_criteria></training_params>
  <input_scale>
    2.2931780206233148e+000 -5.8563771245464580e-001
    2.0007202418625756e+000 -9.7352038267509888e-001
    2.0038477680198059e+000 -1.0639840914659651e+000
    2.0171641290750504e+000 -1.1398747943696708e+000
    2.0226971455970890e+000 -1.1624311187846801e+000
    2.0241541771075520e+000 -1.1679617676453646e+000
    2.0205034580721599e+000 -1.1538085331952315e+000
    2.0068374654156851e+000 -1.0861783433220369e+000
    2.0021848579180115e+000 -1.0478476566778596e+000
    2.0002854349114978e+000 -1.0170381393140606e+000
    2.0000246867735325e+000 -9.9504374943154883e-001
    2.0009909315553451e+000 -1.0319784300866752e+000
    2.0046268618354670e+000 -1.0703737996948570e+000
    2.0133432636906696e+000 -1.1223771821104329e+000
    2.0405683412645081e+000 -1.2227188238978124e+000
    2.0815997302849283e+000 -1.3293555084429751e+000
    2.0964094941206532e+000 -1.3624231293357807e+000
    2.0437032119331655e+000 -1.2320436719835579e+000
    2.0064030898038019e+000 -1.0832848745876771e+000
    2.1397048850846403e+000 -6.8961008717699734e-001
    2.0015036094264471e+000 -1.0395354950581877e+000
    2.1854342229052830e+000 -1.5332062550889001e+000
    2.4452776203127402e+000 -1.9260914809883063e+000
    2.3487813053339393e+000 -1.7901774705443507e+000
    2.2922022085846439e+000 -1.7060544427590907e+000
    2.2163566927750895e+000 -1.5857338378251717e+000
    2.2109664480380147e+000 -1.5767508322708994e+000
    2.2234321144297517e+000 -1.5974243975482383e+000
    2.2380874830442501e+000 -1.6212975572765072e+000
    2.2439740336177536e+000 -1.6307648326456945e+000
    2.2405972072987037e+000 -1.6253421278516600e+000
    2.2473860998901141e+000 -1.6362221422850183e+000
    2.2864009203304043e+000 -1.6971926010137253e+000
    2.3590329419130160e+000 -1.8050235494597773e+000
    2.6055563285882211e+000 -2.1377817243832471e+000
    3.1392476964869425e+000 -2.7794664103046030e+000
    3.3476732870970873e+000 -3.0161216763511356e+000
    3.1274816402201036e+000 -2.7659410332519632e+000
    2.4090652728253947e+000 -1.8760226751946016e+000
    2.0278924613298659e+000 -1.1815378732955397e+000
    2.0017165348749368e+000 -1.0422982420746607e+000
    2.3963351561230950e+000 -1.8581717788950531e+000
    2.4424990777413877e+000 -1.9222847991763952e+000
    2.2551941267448816e+000 -1.6486298236919357e+000
    2.1833517668392797e+000 -1.5295756829629270e+000
    2.1391290145673394e+000 -1.4489959704505495e+000
    2.1679157764709198e+000 -1.5022457119500379e+000
    2.2355972064755889e+000 -1.6172720433728673e+000
    2.3030788965642244e+000 -1.7225412879900692e+000
    2.3236844363226794e+000 -1.7533465206833601e+000
    2.2569541976473610e+000 -1.6514116669768204e+000
    2.1455488859263467e+000 -1.4611621429163859e+000
    2.1204440207525761e+000 -1.4124587365794734e+000
    2.1312268504733551e+000 -1.4337600971551456e+000
    2.1833517668392797e+000 -1.5295756829629270e+000
    2.3061004951326582e+000 -1.7270928186468832e+000
    2.4996895588311889e+000 -1.9995860498765556e+000
    2.6793829366526354e+000 -2.2311920181333971e+000
    2.5762630618734033e+000 -2.1000938705764973e+000
    2.0173415566051562e+000 -1.1406432716545221e+000
    2.0012107280167037e+000 -1.0354061467910207e+000
    2.1577125722727333e+000 -1.4837400795091733e+000
    2.0959527230330002e+000 -1.3614320271174938e+000
    2.0045367160790883e+000 -9.3487502359700447e-001
    2.0815997302849283e+000 -7.5224422184195328e-001
    2.1048577177097587e+000 -7.2439455737013558e-001
    2.0609885375849157e+000 -7.8166011114101641e-001
    2.0066184693892763e+000 -9.2188798179626574e-001
    2.0307036048007125e+000 -1.1912474607823986e+000
    2.0660023709400859e+000 -1.2920213568515675e+000
    2.0147792629153130e+000 -1.1291840055822158e+000
    2.0168121145802775e+000 -8.7847231887150212e-001
    2.0964094941206532e+000 -7.3398636478487267e-001
    2.1515503021060094e+000 -6.7917437492779953e-001
    2.1408612524390511e+000 -6.8856451676658448e-001
    2.1137445460873110e+000 -7.1485034168769279e-001
    2.0265405685203448e+000 -8.4981793963125429e-001
    2.0254411243179855e+000 -1.1727297400820931e+000
    2.0431237389873105e+000 -1.2303408272537033e+000
    2.0001054463391474e+000 -9.8978388103036974e-001
    2.0304638446620262e+000 -1.1904342514249044e+000
    2.1005796778088328e+000 -1.3713953444720801e+000
    2.0001054463391474e+000 -1.0103215653087776e+000
    2.2473860998901145e+000 -6.1116395760509568e-001
    2.2695348073346100e+000 -5.9839341061223894e-001
    2.1391290145673394e+000 -6.9013304411678988e-001
    2.0879523203061607e+000 -7.4416584850925105e-001
    2.0187951613046726e+000 -8.7198042078214411e-001
    2.0439945387742657e+000 -1.2328963415395620e+000
    2.0853774463682497e+000 -1.3379848008000330e+000
    2.0065103277592220e+000 -1.0840074013167575e+000
    2.1010496573592219e+000 -7.2865153734849464e-001
    2.4039306332124855e+000 -5.3509154869784370e-001
    2.4248190344634515e+000 -5.2689012474595043e-001
    2.3236844363226790e+000 -5.7033791563931935e-001
    2.2722909530283788e+000 -5.9686211518764631e-001
    2.2631871174375178e+000 -6.0196729224985979e-001
    2.0276646713044677e+000 -8.4693115287013376e-001
    2.0151086668264817e+000 -1.1307035712501026e+000
    2.0027099111782074e+000 -1.0534293934915513e+000
    2.0357110624962944e+000 -1.2076709218055195e+000
    2.1306737150977391e+000 -1.4326822264486287e+000
    2.0094861575644285e+000 -1.1022554080578648e+000
    2.1273861061841104e+000 -7.0114248945120561e-001
    2.1608551411013486e+000 -6.7137533035874963e-001
    2.1147596879508885e+000 -7.1379268698971698e-001
    2.0832662587460375e+000 -7.5008626142992474e-001
    2.0067275151286244e+000 -9.2127338057909025e-001
    2.0905728435094462e+000 -1.3496278476316363e+000
    2.1570890059001107e+000 -1.4825967827899071e+000
    2.0321632872428195e+000 -1.1961424847401425e+000
    2.0397354299537422e+000 -8.1954258911357714e-001
    2.2202671191654844e+000 -6.2805833712067693e-001
    2.2397584619136288e+000 -6.1576665233133876e-001
    2.1982755879720206e+000 -6.4295374103322100e-001
    2.1889412782949886e+000 -6.4964934923892348e-001
    2.1570890059001107e+000 -6.7449222311020351e-001
    2.0077496852849914e+000 -9.1575730925386989e-001
    2.0201171303519536e+000 -1.1522496516946219e+000
    2.0040994166746660e+000 -1.0661091961508824e+000
    2.0009909315553451e+000 -1.0319784300866752e+000
    2.2071756537145970e+000 -1.5703919523613630e+000
    2.2019503461071221e+000 -1.5615686290213147e+000
    2.0029214587111261e+000 -1.0555309840375626e+000
    2.0239431080394548e+000 -8.5677353165764270e-001
    2.0445803796452315e+000 -8.0997619544739874e-001
    2.0260978383861814e+000 -8.5097451443314942e-001
    2.0003820341796299e+000 -1.0197376451150879e+000
    2.1097397590338058e+000 -1.3906532363290074e+000
    2.2234321144297517e+000 -1.5974243975482383e+000
    2.1374106169506035e+000 -1.4457080092126970e+000
    2.0037656716018724e+000 -1.0632767823472009e+000
    2.0276646713044677e+000 -8.4693115287013376e-001
    2.0478789039819567e+000 -8.0382129884684295e-001
    2.0389119074173769e+000 -8.2123778715453144e-001
    2.0267634126184126e+000 -8.4924005199148456e-001
    2.0003319764482010e+000 -1.0183869651543178e+000
    2.0685944267030392e+000 -1.2984387010938256e+000
    2.0606390020018521e+000 -1.2784289005463627e+000
    2.0006850954162791e+000 -9.7416597888768808e-001
    2.0068374654156855e+000 -9.2065912209364842e-001
    2.3636701856256490e+000 -1.8117034811320807e+000
    2.3754869497365383e+000 -1.8286292385517440e+000
    2.1772010787690910e+000 -1.5187762411022543e+000
    2.1077705401740232e+000 -1.3865625348743327e+000
    2.0299873324759363e+000 -1.1888100708239335e+000
    2.0144536080947355e+000 -1.1276669750513757e+000
    2.0434129457657884e+000 -1.2311918344975055e+000
    2.2331262205582263e+000 -1.6132654147192751e+000
    2.3695382230252426e+000 -1.8201255843642059e+000
    2.3122161628410249e+000 -1.7362683143956952e+000
    2.1087524023147961e+000 -1.3886054242470403e+000
    2.0497330274074588e+000 -1.2492576251837442e+000
    2.0503597543263887e+000 -1.2509979024409434e+000
    2.0735613934672155e+000 -1.3104853059739805e+000
    2.1087524023147961e+000 -1.3886054242470403e+000
    2.1711930356247024e+000 -1.5081125524031140e+000
    2.3510379143143409e+000 -1.7934548912440964e+000
    2.3742906831543533e+000 -1.8269219135367878e+000
    2.0014525878005789e+000 -9.6260654438106674e-001
    2.0241541771075520e+000 -8.5619240946218744e-001
    2.0634672679963990e+000 -1.2856515174233940e+000
    2.2605019455577526e+000 -1.6570025854651562e+000
    2.1503372626060848e+000 -1.4701212686382774e+000
    2.0870889796658503e+000 -1.3418481979236221e+000
    2.0154418252427160e+000 -1.1322256825477464e+000
    2.0000580427995547e+000 -9.9241038360839118e-001
    2.0005225671923736e+000 -9.7740006181144456e-001
    2.0114021157310580e+000 -1.1126338301659049e+000
    2.0445803796452311e+000 -1.2346041841978324e+000
    2.0346770328443320e+000 -1.2043616620380329e+000
    2.0276646713044677e+000 -1.1807335184343339e+000
    2.0457648466340932e+000 -1.2380299353429904e+000
    2.0892568467323107e+000 -1.3467021608946925e+000
    2.1236175371433510e+000 -1.4187931674124341e+000
    2.1570890059001107e+000 -1.4825967827899071e+000
    2.1975463347308444e+000 -1.5540779810037604e+000
    2.3636701856256490e+000 -1.8117034811320807e+000
    2.1295719140143783e+000 -1.4305305868238354e+000
    2.0087200609005702e+000 -9.1087703324706215e-001
    2.3851762234757024e+000 -5.4276782561371562e-001
    2.0910140682303444e+000 -7.4040875751515001e-001
    2.0875200170502550e+000 -7.4470323231637114e-001
    2.0469664309677955e+000 -8.0549722424304104e-001
    2.0304638446620262e+000 -8.4002959323712190e-001
    2.0472695116482358e+000 -8.0493836049236700e-001
    2.1010496573592219e+000 -7.2865153734849464e-001
    2.1840441142460003e+000 -6.5325996527464003e-001
    2.2298613127996809e+000 -6.2190898488815216e-001
    2.2179147913560437e+000 -6.2959687850020851e-001
    2.1910674820958422e+000 -6.4810310086505041e-001
    2.1102355042898742e+000 -7.1855650825107342e-001
    2.0545403070125867e+000 -7.9214472254476687e-001
    2.0130344145437644e+000 -8.9216298332545774e-001
    2.0013048230386903e+000 -9.6452418599579137e-001
    2.0057786153702111e+000 -9.2681721379312498e-001
    2.0269872439945269e+000 -8.4866243007919240e-001
    2.0693455579254882e+000 -7.6906449685074452e-001
    2.0445803796452315e+000 -8.0997619544739874e-001
    2.3132449322622453e+000 -5.7543787483568931e-001</input_scale>
  <output_scale>
    5.2631578947368418e-001 4.9999999999999994e-001
    5.2631578947368418e-001 4.9999999999999994e-001
    5.2631578947368418e-001 4.9999999999999994e-001
    5.2631578947368418e-001 4.9999999999999994e-001
    5.2631578947368418e-001 4.9999999999999994e-001
    5.2631578947368418e-001 4.9999999999999994e-001
    5.2631578947368418e-001 4.9999999999999994e-001
    5.2631578947368418e-001 4.9999999999999994e-001
    5.2631578947368418e-001 4.9999999999999994e-001
    5.2631578947368418e-001 4.9999999999999994e-001
    5.2631578947368418e-001 4.9999999999999994e-001
    5.2631578947368418e-001 4.9999999999999994e-001
    5.2631578947368418e-001 4.9999999999999994e-001
    5.2631578947368418e-001 4.9999999999999994e-001
    5.2631578947368418e-001 4.9999999999999994e-001
    5.2631578947368418e-001 4.9999999999999994e-001
    5.2631578947368418e-001 4.9999999999999994e-001
    5.2631578947368418e-001 4.9999999999999994e-001
    5.2631578947368418e-001 4.9999999999999994e-001
    5.2631578947368418e-001 4.9999999999999994e-001
    5.2631578947368418e-001 4.9999999999999994e-001
    5.2631578947368418e-001 4.9999999999999994e-001
    5.2631578947368418e-001 4.9999999999999994e-001
    5.2631578947368418e-001 4.9999999999999994e-001
    5.2631578947368418e-001 4.9999999999999994e-001
    5.2631578947368418e-001 4.9999999999999994e-001
    5.2631578947368418e-001 4.9999999999999994e-001
    5.2631578947368418e-001 4.9999999999999994e-001
    5.2631578947368418e-001 4.9999999999999994e-001
    5.2631578947368418e-001 4.9999999999999994e-001
    5.2631578947368418e-001 4.9999999999999994e-001
    5.2631578947368418e-001 4.9999999999999994e-001
    5.2631578947368418e-001 4.9999999999999994e-001
    5.2631578947368418e-001 4.9999999999999994e-001</output_scale>
  <inv_output_scale>
    1.8999999999999999e+000 -9.4999999999999996e-001
    1.8999999999999999e+000 -9.4999999999999996e-001
    1.8999999999999999e+000 -9.4999999999999996e-001
    1.8999999999999999e+000 -9.4999999999999996e-001
    1.8999999999999999e+000 -9.4999999999999996e-001
    1.8999999999999999e+000 -9.4999999999999996e-001
    1.8999999999999999e+000 -9.4999999999999996e-001
    1.8999999999999999e+000 -9.4999999999999996e-001
    1.8999999999999999e+000 -9.4999999999999996e-001
    1.8999999999999999e+000 -9.4999999999999996e-001
    1.8999999999999999e+000 -9.4999999999999996e-001
    1.8999999999999999e+000 -9.4999999999999996e-001
    1.8999999999999999e+000 -9.4999999999999996e-001
    1.8999999999999999e+000 -9.4999999999999996e-001
    1.8999999999999999e+000 -9.4999999999999996e-001
    1.8999999999999999e+000 -9.4999999999999996e-001
    1.8999999999999999e+000 -9.4999999999999996e-001
    1.8999999999999999e+000 -9.4999999999999996e-001
    1.8999999999999999e+000 -9.4999999999999996e-001
    1.8999999999999999e+000 -9.4999999999999996e-001
    1.8999999999999999e+000 -9.4999999999999996e-001
    1.8999999999999999e+000 -9.4999999999999996e-001
    1.8999999999999999e+000 -9.4999999999999996e-001
    1.8999999999999999e+000 -9.4999999999999996e-001
    1.8999999999999999e+000 -9.4999999999999996e-001
    1.8999999999999999e+000 -9.4999999999999996e-001
    1.8999999999999999e+000 -9.4999999999999996e-001
    1.8999999999999999e+000 -9.4999999999999996e-001
    1.8999999999999999e+000 -9.4999999999999996e-001
    1.8999999999999999e+000 -9.4999999999999996e-001
    1.8999999999999999e+000 -9.4999999999999996e-001
    1.8999999999999999e+000 -9.4999999999999996e-001
    1.8999999999999999e+000 -9.4999999999999996e-001
    1.8999999999999999e+000 -9.4999999999999996e-001</inv_output_scale>
  <weights>
    <_>
      -5.4795282017427072e-001 -6.5821213631146888e-002
      -3.1898613911017748e-001 -3.1549894760944658e-001
      5.9299287526130805e-002 -9.9614657363751594e-002
      -3.3008229053184458e-003 -1.7512719583393005e-001
      -3.7715532860611961e-001 -1.9083177459357972e-001
      5.4265237435543301e-001 2.2022841441445931e-001
      2.8197360543422040e-001 -3.5201030412858082e-002
      4.9424629792049285e-002 2.6462523594081234e-002
      1.5228203095176157e-001 2.3698538272391970e-001
      -6.7321070245058817e-002 2.3323134049039001e-002
      6.1321445657597472e-002 -8.4246103144252044e-002
      3.7836612287434579e-001 -1.9859920454385210e-001
      -7.0258713394586114e-002 8.5945158181413184e-002
      -4.6858563923028818e-001 4.7435325124292083e-001
      4.3344691262390940e-002 1.0518713029907552e-001
      9.6089224736612500e-001 2.4493850254109678e-001
      -2.9318306893508711e-001 -1.8220975536988055e-002
      -1.3814209491181850e-001 -2.4766218107238190e-002
      -6.7347470875875962e-002 -2.9159432971519478e-001
      -2.2717761369353488e-002 4.2507134456720203e-001
      5.2094239305059165e-001 5.1105202329648503e-001
      1.3665999639617271e-001 -1.2064716427766617e-003
      -2.3087869158462318e-001 -7.3670932259007841e-003
      4.4959133377432410e-002 2.2039845609006742e-001
      7.7587349225043761e-002 -1.9452635036910526e-001
      -1.4598654662976279e-001 -2.3975553537141786e-001
      -1.7548922089245425e-001 -4.6799522221908080e-001
      -1.0874943606012473e-001 6.9661457005430361e-002
      -1.2269048406781796e-001 5.7847907715650973e-002
      -2.5403489278454421e-002 -3.0461593835718181e-001
      -1.1801868159480282e+000 4.7227868828744315e-002
      -1.7458009589269691e-001 -2.2216106913879879e-001
      -2.8643261901847048e-002 -2.2884951755796812e-001
      1.5783094202508707e-001 -1.5508568142408780e-001
      -1.0420646099891819e-001 2.0900290525390439e-001
      6.0977452338160132e-001 2.1178705656091393e-001
      2.1148717604311315e-001 -6.5696543921082082e-002
      2.0562027982257532e-002 -1.2759905627628684e-001
      2.2501735984877477e-001 6.8851222520858416e-002
      -6.1438135486207614e-002 7.2637765156666770e-002
      2.6620716982248424e-002 -3.9864625080337661e-002
      -3.0812638727736180e-001 -3.0077753006197755e-001
      1.3369804384071343e-001 -1.6900411392629569e-001
      -2.2354079828267003e-002 -3.6342775926945048e-001
      7.5286725717343767e-002 1.8507869322631657e-001
      1.4126258010435908e+000 4.5257820352100242e-001
      8.5199343832716504e-002 -1.8077348758115974e-001
      -1.6250875408422533e-001 -8.0775591382211034e-002
      7.0314342352560469e-002 2.4228648802802236e-001
      5.8204623614099230e-003 -1.0106499822145512e-001
      3.3603101274742198e-002 -5.7374368665040355e-003
      -9.8349163154421868e-002 1.0107812419069660e-001
      -7.9390225513026838e-002 2.6706840014214067e-001
      4.6564025060948483e-001 -1.3863729098496241e-001
      -7.9710070781498582e-002 2.6957357838563640e-002
      -7.2877468839576534e-002 9.0131721714753144e-002
      -2.8911409864313481e-001 -2.5825313749962164e-001
      2.1195909327486359e-001 -2.9668472979855046e-002
      8.1952573740208132e-002 8.0914909334480825e-002
      -2.8486435042540673e-002 2.9779490623564403e-001
      1.6287088195355863e+000 1.0694352111852713e-001
      2.2209590197825388e-001 -1.0336021287502944e-001
      -1.3887777444805879e-001 7.0538936096893573e-002
      2.3485511263066489e-001 -1.5306462875083460e-001
      1.2333061319938023e-001 -1.5613333194572696e-001
      -2.7989196122386478e-001 -3.1357013314486337e-001
      -2.2131954006104773e-001 8.4618944964859374e-002
      -1.7338675025419378e-001 -5.3107452099541187e-002
      1.8006479522875288e-001 -3.5001570992002617e-001
      2.3711441442659017e-002 4.5274380345928719e-002
      -2.0267091863929657e-001 6.9033280917897552e-002
      -3.7269488599548650e-001 1.3082672860542288e-001
      2.2041955738066848e-001 -7.9666462947547811e-002
      1.5333517296713081e-001 1.7510823035650441e-001
      -7.1467458287905981e-003 -1.1364198999425887e-002
      -3.5397874760661491e-001 6.4200295422528766e-002
      -8.0603119040815588e-002 5.0066887061463942e-002
      -2.0623520887130395e-001 -5.3589661881445191e-002
      3.5661601646843955e-001 2.0779279179199304e-003
      4.5322659404835614e-001 1.7800311085042195e-001
      -5.4080553605429760e-001 -2.4889544291958624e-001
      -3.8402975053766730e-001 -2.3101003169317494e-001
      -1.5013785779433880e-001 1.4085306673308384e-001
      1.9712575701803320e-001 -4.0832773519400978e-001
      1.6783562780164493e-001 1.0862538626724215e-001
      -3.0909702683148421e-001 -4.2014229838759937e-001
      -4.8810847111450989e-001 -4.1797170669082034e-002
      4.5827369730060685e-001 -1.9768381536019489e-001
      -2.9638607667667252e-002 -9.3621065769203995e-002
      -1.6972156090390406e-001 -4.0427290491454021e-002
      1.0551052561010956e+000 1.0776044401159802e-001
      -5.8885206047716871e-003 -9.9844297625157216e-002
      -2.0249382167530947e-001 -5.4457247921543619e-002
      1.5074732719240033e-001 -5.7380438127981853e-002
      4.1584663300194530e-001 1.7821613986906856e-001
      -5.1677611935636270e-001 -2.0049488327282416e-001
      -1.9950858949901190e-001 -1.8441288932479841e-001
      -8.6176427290910129e-002 1.9158517017223436e-001
      2.8730653076754864e-001 -4.4740174262310715e-002
      6.6607185061661703e-002 -1.8963350429644091e-001
      -3.3899781358875086e-001 -3.3944634516280120e-001
      -4.8700016893223363e-001 4.4879923963209939e-003
      4.2321230236366675e-001 -1.7302308618605231e-001
      1.4963054000775253e-001 -3.3596898192592310e-002
      7.1084171210940864e-002 -1.0845037235046708e-001
      3.0840308255852436e+000 1.2483461880226832e-001
      -6.1076570130765622e-003 1.9879136827356719e-001
      -2.0049458520274968e-001 -1.6413398854881789e-001
      4.1566953192551506e-002 -8.5015790944822811e-002
      1.8753074471074735e-001 8.7105090262195956e-002
      -3.7950636641981000e-001 3.6662205631717501e-002
      -1.0893226921775831e-001 -1.6995812114125061e-001
      -1.5300893572265753e-002 2.6942312046403222e-001
      -6.9745870327259971e-002 -1.7584846193783758e-002
      -1.3613757903635140e-001 -1.6709761986451030e-001
      -3.2613161813790637e-001 -1.1063598784123917e-001
      -3.5164742558110729e-001 -7.2919745024574933e-002
      1.6357174029464652e-001 -1.9829835256947309e-001
      1.8803727454665336e-002 -5.5751399308286813e-003
      -5.9481755683549214e-002 1.7098805939865971e-001
      3.5335719994866461e+000 5.9220528297824850e-002
      -1.0109506487371642e-002 2.6900745399615550e-001
      -3.4628131834013233e-002 -2.0452647214403921e-001
      1.2693918789422515e-001 2.0651932498745581e-002
      -8.5749038818286414e-003 6.9518049956699579e-002
      5.2265522146691479e-001 4.6707944672928448e-001
      -8.8792467867547901e-003 -7.7027472920656800e-002
      -3.2131884748230395e-003 1.3118567673537895e-001
      -7.1916345327145678e-002 2.6776393393227649e-001
      -1.1947433297681209e-001 -8.0543239108217327e-002
      -1.3372468672471693e-001 1.5231432421031846e-002
      -1.2827000826635396e-001 6.9661921104614249e-002
      -9.3194097696661718e-002 -2.4563217186542308e-002
      -2.7597070111694733e-001 -1.2914008011060069e-001
      1.1739516543176344e-001 5.7425667000362363e-002
      2.8372741332217619e+000 5.5680648965677586e-002
      1.1116873588595153e-001 4.8642997317206166e-001
      -1.1512764941627728e-001 -2.8448160690962763e-002
      5.8638327754052415e-002 -3.2339604085641474e-002
      1.5239733480355946e-002 1.2595823378450433e-001
      2.4706315100101886e-001 3.8295561380525817e-001
      1.3070894665793584e-001 -1.1261937799396238e-001
      1.9223046430496150e-002 2.5423183278073630e-001
      -2.2413491044738013e-001 8.4253352537787068e-002
      -7.5664055408802347e-002 -1.0452107330920962e-001
      -1.8767420655732048e-001 -9.9029248899050404e-002
      -1.0506091107219429e-001 3.7236890151201851e-001
      9.8693299924841660e-002 -3.8571669599690571e-002
      -6.3518003915323196e-001 1.1397402691684055e-002
      2.8923955891006475e-001 -1.5886262538273587e-002
      2.1259360773181277e+000 1.6247110968362533e-001
      2.6384693329393011e-001 3.2719575830049635e-001
      -1.7998179300139816e-001 -4.7749189127402033e-003
      6.9469954941262207e-002 1.5768054370318585e-001
      -2.3312903189788351e-002 1.0939064037984761e-002
      5.0485191564173071e-001 2.9812757158768588e-001
      8.2217610545119044e-002 -7.9018376581205974e-002
      1.1614975473298759e-002 5.8476402482421024e-002
      -7.1986040632930251e-002 -8.9991777001923956e-002
      -5.4152392534239466e-002 -1.3275841183806031e-001
      -2.5746595839625484e-004 -4.7440342205661769e-002
      -7.7015494750140634e-002 9.5402371323824051e-002
      2.8337050404457265e-002 -2.2906844038616092e-001
      -2.8813138044072401e-001 -1.3022985893366959e-001
      -3.2834548051160948e-003 -1.1754611581360934e-001
      2.3126628684966870e+000 -3.8862309351123704e-002
      2.1709407799309041e-001 -3.6665789747785817e-002
      -1.5020078508160609e-001 -2.3745132601651484e-001
      1.0900431492551881e-001 8.1461446083031311e-002
      -6.4095239102752929e-002 6.7391699671957031e-002
      -1.3930147588017264e-001 3.2101344520904768e-002
      2.3616319430789592e-001 4.1900083920281905e-001
      -1.3361524604315111e-001 1.9784412903397605e-001
      -3.2091928610674128e-002 -2.4799318976856932e-001
      7.8823938105446106e-002 -2.3821637872708946e-002
      -1.0081599217688020e-001 -1.7302629971179095e-001
      -3.0533906307645509e-001 3.7086847528903505e-001
      1.6079468730519356e-001 -3.0370881837609398e-001
      1.3256890342643027e-001 -5.3775959103734422e-002
      7.4851400280736988e-002 -9.6682199881233263e-002
      2.6457295765374839e-001 1.3331141547026812e-002
      3.5805654336469733e-003 -3.0801828868116488e-001
      -9.3382738410338187e-002 1.4322593444547521e-001
      1.2835327377483718e-001 1.2121054433507379e-001
      -1.0991332582258076e-001 7.0861717016014694e-002
      -2.0130338114297935e-001 -2.2488771544586966e-001
      8.3394131113540174e-002 4.8380515352359466e-001
      -1.3237943320833148e-001 -1.2330649509587073e-001
      3.3085200868513839e-002 -5.6359282837652201e-002
      3.0439041713288751e-002 7.6319857278254327e-002
      -1.9574434161904189e-001 1.1902802893809966e-002
      -1.9129676403712328e-001 1.0118685047179697e-001
      1.5285291460473316e-001 -2.1652994568139294e-001
      6.5244197144524882e-002 1.9155149908009903e-002
      2.1987521105354349e-001 -1.9580267464482055e-002
      -6.5430497851223768e-001 -2.1390254511080176e-002
      -4.5858619797297454e-002 -4.6537525513822442e-001
      -2.9348278661386645e-001 1.7659381982749645e-001
      2.4991828636474980e-001 1.2932068114321850e-002
      1.3832165252011891e-001 9.2509469845499140e-002
      -2.3798046766230030e-001 -4.9017722793096563e-001
      -6.1184732175925016e-002 4.0899369491297749e-001
      -6.7313510827046938e-002 -1.5950952425391504e-001
      5.0244968999283844e-002 -1.3384949668177520e-002
      5.3015793685225786e-003 2.6193819199515184e-001
      -3.0694107154461664e-001 1.0620450462639090e-002
      -3.5102821774153081e-001 -1.3757735304361945e-001
      2.8259358344669089e-001 -3.1035633612634433e-001
      5.5501398193091049e-003 -8.9843981451010219e-002
      3.7630663239120293e-001 -1.9813192877117514e-001
      -4.0406622816814064e+000 -6.0063570350660594e-002
      2.3102726852820585e-001 -1.4342985101267514e-001
      -4.1268213898091327e-001 1.6674153624073121e-001
      3.7221906021417239e-001 1.5899811127813748e-001
      5.3907766153001482e-002 -5.9458873469023767e-002
      -2.8538444121143708e-001 -5.1877456760130269e-001
      -2.9646266100888763e-001 1.5188261083728663e-001
      -1.5321953842646427e-001 1.5578673044900707e-001
      2.4542314476868846e-002 -1.7742688451028010e-001
      9.3305303088060780e-003 4.0058920003792714e-001
      -2.4421989312549824e-001 3.5489779117033972e-002
      -3.5857711475818665e-001 1.0010919454785588e-002
      2.6136758887150113e-001 -2.9876771939144059e-001
      2.6256107686878238e-001 -2.1852145131840132e-002
      1.9694981498191202e-001 1.2419206253556725e-001
      -1.9704038293685222e+000 -1.6178944776483556e-001
      -2.3679722195218461e-001 -2.4178147550692013e-002
      -7.9063576079684894e-002 5.3590928504124273e-003
      1.6764158416327965e-001 6.1755844259500162e-003
      7.5219873871666870e-002 -2.3584085769883195e-001
      -5.9576224584897897e-001 -4.4485850818451811e-001
      -2.4468309009869157e-001 6.6365930928601437e-003
      -1.7993492247748399e-001 1.2477329188838834e-001
      1.2724877600868472e-002 1.3375310369932435e-002
      2.4604685685575425e-001 2.4220227956298784e-001
      7.8231351992587447e-002 1.8601786446618498e-001
      -2.1238297923837685e-001 2.8681286590349148e-001
      -1.9835143299156213e-001 2.6896073755827804e-001
      2.4403915709044402e-001 1.5018687643875067e-001
      -3.3249780412426787e-002 -9.0906581444749071e-002
      -5.3231020251509376e-001 -1.4035070120443716e-002
      -1.6020564462492862e-001 -2.3065506260405766e-001
      2.6042315399477621e-002 -1.9563601403937775e-001
      4.7672416833824019e-002 -3.1322060589558143e-001
      -1.9530727678977663e-001 -3.3718921879527303e-001
      -1.0405518912744499e-001 -2.2093209794595015e-001
      6.3122138425858496e-002 -9.4338038235234331e-002
      3.2771305549296220e-001 -1.8054928736170422e-001
      -3.0378306389930598e-001 -8.6744548132366532e-003
      1.4073439882398646e-002 4.9860045803244414e-002
      2.0742052338057099e-001 -5.4869697871359868e-002
      1.0933246453541549e-001 9.4872697689262916e-002
      -2.1100084514845641e-001 2.4184876638007735e-001
      1.1689664072820563e-001 1.8819533279040049e-001
      -2.2038184593850552e-001 -9.6380999469434736e-002
      3.1787420154778614e+000 1.0053079596935179e-001
      -1.7601885404349571e-001 4.2195776723181345e-002
      9.7670803735223952e-002 3.5481738648436023e-001
      -2.0229545337248428e-001 -1.9873185222640463e-001
      1.2768142540780769e-001 4.5104617081322788e-003
      7.5969731656564010e-001 3.0374053033992932e-001
      -2.6035297424923426e-001 -1.8445113421722704e-002
      1.7248211753550380e-001 4.1767082175381255e-002
      1.2024431058161530e-001 -5.7963289402684907e-002
      1.0428349298600163e-001 -1.8911283497724510e-001
      1.2451119985365143e-001 3.4019538002925198e-001
      -5.3453952333927891e-002 2.2993826404505886e-002
      6.9647523551555096e-002 8.4587779283203449e-002
      -9.9739135221469211e-002 -1.0693895599954320e-001
      1.0717729475925197e-001 -7.0656080380206931e-002
      3.0039729629411105e+000 4.2500020719972309e-001
      2.5932527985215342e-001 8.6960953545608524e-002
      1.9343819168377666e-001 7.8172401399541502e-001
      -3.1450052469055978e-001 -5.1124247829284930e-002
      -2.2420598480136320e-001 2.8262854849389807e-001
      1.0828767510195123e+000 1.8824058246031800e-001
      -1.6306848991735565e-001 2.0474837118075301e-001
      3.0723153538791453e-001 1.3386023971604020e-002
      -2.1608020962539201e-001 -8.5155231711977301e-003
      -3.3595105864129760e-001 -1.3679103766070283e-001
      2.4779477281153423e-001 -2.3155053085374508e-001
      1.8324325511923387e-001 -3.5067814515418638e-001
      -7.6485308896633529e-004 3.4753210778141370e-002
      -5.2948742425040818e-001 1.1200179958547958e-001
      -1.6446126193046259e-001 2.3702637856821604e-001
      8.2557424701982496e-001 -1.0527838480259946e-002
      5.3041494433207256e-002 2.8965245341573542e-001
      2.0151735751516234e-001 2.7448128325098059e-001
      -2.5182731457531909e-001 -7.9252724577630829e-002
      -1.0386491020426961e-001 2.6875651094968107e-002
      1.5335677238125087e+000 1.3078428742694875e-001
      -1.1888186216599207e-001 1.7192323945575744e-001
      5.6255765040817543e-002 -1.7876754014386784e-001
      6.2551503408040984e-002 -1.5138624458557340e-001
      -2.6250317552682567e-001 -1.4473480504448188e-001
      1.3998334356133632e-001 3.1514091396927651e-001
      3.4839801505639550e-001 -3.6808681123471204e-001
      -1.7726279333471331e-001 6.1525679436230468e-002
      8.1360728900365678e-002 -1.4609946413049793e-001
      -1.6804744534157159e-001 -1.3076176496401720e-001
      7.7697362178124496e-001 3.2452114530113013e-001
      -7.9528099535275884e-002 2.8309342786130121e-001
      -7.2784946668214084e-002 1.1999306962630896e-001
      -1.6222942035375912e-001 2.2110962889886496e-001
      -7.3577894503101371e-002 3.2501526777722506e-001
      8.3331866945351940e-001 4.2573241463446382e-001
      6.2718452010926948e-002 -2.9917423841797758e-001
      -1.0181486648070359e-001 5.7626392777070344e-002
      1.7584979187119607e-001 3.3855074867441159e-002
      4.0295997674312238e-002 3.4621502345799748e-002
      -2.3845160295260126e-002 -8.1780670682341128e-002
      2.1948999471024186e-001 -2.7330074379034830e-001
      -5.6404549342337254e-002 -5.6591873133639913e-002
      -5.6828595869890797e-001 3.2887693263582868e-001
      1.3416690248351193e-001 -5.7359470381528291e-002
      1.5577703695094314e-001 5.4191169415652773e-001
      -2.6693268468607056e-001 1.6245041872642152e-001
      -1.7536845270217687e-002 1.9447343592856070e-001
      2.2026386740192141e-001 -3.8800088908182223e-001
      -2.3539547566389912e-002 5.0462120294106882e-001
      7.8130519038148194e-001 8.1256264645782628e-001
      8.9258666705290604e-003 -8.5852168752549363e-002
      -1.1391597877912578e-001 -1.0156339979391289e-001
      -7.3009992069747215e-004 8.9624926466436036e-002
      2.1319175395979401e-001 -4.8355520185800582e-002
      -1.9679364500106597e-001 1.0204853539152946e-002
      -1.8803206370834202e-001 -1.5030524266680825e-001
      -2.9664514280370452e-001 -1.4743270892623767e-001
      -4.6077494087970167e-001 3.7033160950055410e-001
      9.0055662554890531e-002 -4.6021147404082452e-003
      -1.1315821051479139e-001 3.8028673326509937e-001
      -1.6463880666767941e-001 -2.0108190472390194e-001
      -6.2940851882905727e-002 -6.6006644854521013e-002
      8.3668439263181724e-002 -5.3089699009029556e-001
      8.3122334025429970e-002 6.3420008897799662e-001
      -1.6585983861428047e-001 6.8142899623948117e-001
      -3.3114170070014215e-001 -1.0601633820640917e-001
      -9.6293326435557963e-002 4.0624444657976544e-001
      1.9050257655375694e-001 4.8751484865439926e-002
      1.9461392253609480e-001 -2.1570156572691842e-002
      -3.5973446618138555e-001 -3.8840347788617074e-001
      -3.5131077982061204e-001 -4.4722266207867073e-001
      4.2081006455694797e-001 -3.9395466172541987e-001
      -2.5702006765519325e-001 9.3162558434261751e-003
      4.7025350350478878e-001 6.2746627145092868e-002
      -1.0780690827748569e+000 4.1012738372051732e-001
      -1.6486552761689649e-001 -2.4107828363921840e-001
      -4.0425078444073981e-001 9.5923704963130449e-002
      3.9505715565258293e-001 -5.2856515144367300e-001
      3.3788370824284558e-001 5.8247726664436128e-001
      -3.8605495622162961e-001 6.4813955714733928e-001
      -6.0203390520198119e-001 2.4315833565363648e-001
      -9.2824934745878898e-002 7.5858165693589885e-001
      3.8763461209930727e-001 1.2294864727028799e-002
      1.8830543397474125e-001 1.6855506468278117e-001
      -4.7263636196218728e-001 -4.9799397135187889e-001
      -3.9930908274149696e-001 -6.3224229228019446e-001
      5.9445667478981512e-001 -3.6720349937420327e-001
      -2.1981894952245476e-001 -2.6746425830835219e-001
      5.0203934077104573e-001 3.5093338093957710e-001
      -5.0562940583860627e-001 3.9901363813759955e-001
      -1.6596236027136627e-001 -2.1834364235521572e-001
      -4.3867833964792646e-001 1.4321047037544110e-001
      5.2447655120972425e-001 -3.8699524506434907e-001
      3.7724857055190891e-001 5.4613229279504805e-001
      -3.5731296595034284e-001 5.0163900118777072e-001
      -5.5097487507087606e-001 -4.9182167592993271e-002
      -1.5711267146473520e-001 8.3353979572769754e-001
      4.0012499540103558e-001 1.3268541419626586e-003
      1.0200556970868846e-001 9.7032418143359708e-002
      -3.9522166202541958e-001 -4.0630205687102322e-001
      -4.6490728161910877e-001 -4.9992661324737397e-001
      5.9748215791300197e-001 -3.1723398585989132e-001
      -2.6264895681275341e-001 2.1467080464582425e-001
      5.6127870313252204e-001 6.2630643417407639e-001
      1.0139935698664561e-002 3.7326595173261723e-001
      -2.0568758814038232e-001 -6.8626810707127436e-002
      -5.4996666801755889e-001 1.7593406700112110e-001
      5.6260315024439744e-001 -9.5015978874938054e-002
      4.7436153777842638e-001 4.3252227145585198e-001
      -7.8815701454699919e-002 4.7469981081759077e-001
      -6.9121929497591572e-001 -1.7233206051123215e-001
      -2.0030493507819791e-001 5.3720744611676885e-001
      5.5866514934578360e-001 -1.5755463953556523e-001
      3.0591657843103187e-001 -4.0840661326149150e-002
      -4.9221460472269923e-001 -5.2304173119363517e-001
      -5.3813722381939511e-001 -5.3809487190864602e-001
      4.8231997792075587e-001 -4.2175081889309846e-001
      -5.0188994858914515e-001 1.3321847408742155e-001
      6.2189716540077800e-001 2.7882192698776548e-001
      7.2928112428640912e-001 4.4791181446274247e-001
      -8.7703203123368670e-002 2.8525155323728907e-001
      -5.8293957119337614e-001 2.6071296612534012e-001
      6.6576180912008931e-001 5.8448910806759680e-002
      5.1505062638268118e-001 5.0538816783365137e-001
      1.6909009106626117e-002 1.6806844262185550e-001
      -5.7920301744429259e-001 -5.8952566659647439e-002
      -2.0108393002981001e-001 5.3070760707713727e-001
      6.1912392983244158e-001 -2.9476419407349586e-001
      3.3349558564811499e-001 -2.3520920088635563e-001
      -7.3532141357684166e-001 -5.6428551656262305e-001
      -5.2715244557684338e-001 -3.7473889291820350e-001
      3.0561594739178266e-001 -2.6266634651221782e-001
      -5.2127458267864835e-001 -7.5384430821209131e-002
      7.2363314322615002e-001 -9.1735635426571354e-003
      8.8413991662396496e-001 3.3930771800521181e-001
      -5.9062663644689857e-003 3.8021628381252104e-001
      -7.1738962696644537e-001 3.1100788142526392e-001
      8.9691185601523282e-001 2.1765574864501275e-001
      6.3143735909029297e-001 3.5575363448120012e-001
      4.3883254625137663e-001 -4.0519396026858209e-002
      -6.0268226338673148e-001 -1.4370581025750842e-001
      -2.6532215849330543e-001 4.9399699215664500e-001
      7.9197367193871937e-001 -2.9800859779077299e-001
      4.1675170879166828e-001 -4.9244783029246275e-001
      -7.7275513519942762e-001 -5.9429276229051009e-001
      -5.4955207370470804e-001 -4.4775185050061689e-001
      2.3389643062912630e-001 -3.2014722077204288e-001
      -3.8725231377345992e-001 -1.2492363743161071e-001
      6.4452850631729053e-001 6.6398576340089305e-002
      2.0564971410497304e+000 1.3234367681489947e-001
      1.3987419733450721e-001 4.0942108374495351e-001
      -5.2234816301199793e-001 1.5027701498124524e-001
      7.3833421190009130e-001 4.8273715177301124e-001
      5.1869624867633202e-001 4.0290625030670835e-001
      4.4440103931805708e-001 5.5979952289280946e-002
      -5.9594780562118954e-001 -1.0255671836988782e-001
      -2.1394892928271900e-001 5.1496134799000826e-001
      6.9197144403566813e-001 -1.9201669621522574e-001
      4.1452774293397543e-001 -2.6509918273279626e-001
      -6.6230039000715046e-001 -4.5795380038403205e-001
      -7.8556473357565315e-001 -1.6904768472052381e-001
      1.5550537292160316e-001 -2.6068264745547287e-001
      -3.2917277700504050e-001 -6.3295149432397058e-002
      6.8923463133947438e-001 1.2840827865967247e-001
      4.9641431930646451e+000 1.0311703966304107e-001
      3.9843918023633040e-001 3.4869829485314413e-001
      -4.6941000413346534e-001 -2.6450229303314260e-001
      3.4380108296799494e-001 3.9585396384327476e-001
      4.2416393577989542e-001 4.7327836416258601e-001
      7.9034128950236215e-001 1.8127611365925968e-002
      -4.8958499751082640e-001 -1.3301241318313861e-001
      -1.8736476050448592e-001 9.0545738554717953e-002
      2.9295255613524052e-001 9.6783062820670437e-002
      1.5646621194548857e-001 -7.4989364761065005e-002
      -5.6311038818502956e-001 -2.8096357377175718e-001
      -6.7931348109712941e-001 -1.1028112733746770e-001
      -1.0998496653080422e-001 -1.9433752325326104e-001
      -7.0304313613282987e-001 -2.3721357879331459e-001
      7.8557430207343659e-001 2.1544125544894402e-001
      4.5105148460725957e+000 1.0078466571881119e-001
      3.6383348630826623e-001 4.8597110422170209e-001
      -4.6016137213291253e-001 -7.3659344542776353e-002
      4.5979001442016759e-001 3.9961385800727289e-001
      1.7012861666802931e-001 3.6079623552520862e-001
      7.9847105260791518e-001 -1.2465055689451172e-001
      -2.4186458345038608e-001 2.2449640732622827e-002
      -2.0708534199948875e-001 7.1931603121690363e-002
      2.9755278246831374e-001 -6.5886357468515844e-002
      2.2450336959819472e-002 9.7092319564404575e-002
      -2.3111637027200876e-001 -1.4117686612232069e-001
      -4.0252781819368477e-001 -1.0194043466683232e-001
      -3.6102215576288871e-002 -4.2413389376008320e-001
      -3.8722122975462681e-001 -1.6926921841599851e-001
      7.4836824008582636e-001 2.6067049959159755e-001
      1.9596587680667044e+000 -2.2074885362120794e-002
      4.7365217743764298e-001 9.1682908287092302e-002
      -3.4115660235466327e-001 1.2084379660602700e-001
      4.9943453562047380e-001 4.7628490259164474e-001
      3.9904087641754321e-002 2.4072736970764427e-001
      1.2073688170629655e+000 -6.5946738312492648e-001
      -1.1390794344834564e-001 6.4807743976790488e-001
      -2.3048043559507117e-001 -2.1058036265673372e-001
      2.6802338331355924e-001 -4.8373141180651263e-001
      -7.1372667402388110e-002 3.3999553870206539e-001
      -1.7060684531868570e-001 -1.2416825062637198e-001
      -4.1349055695892950e-001 -1.2412326834579758e-001
      1.5489551408926147e-001 -6.8455266574621187e-001
      -4.9802960096824826e-002 -2.5461736621089147e-003
      1.0178224650858838e+000 2.5137359849876023e-001
      1.5438970143568929e+000 -9.1027588321378042e-002
      6.3966755461711489e-001 1.3074353448359038e-002
      -4.2864943157947860e-001 2.1684036645608951e-001
      2.7659732737816378e-001 4.1806620008287038e-001
      -6.2705035406673937e-002 1.4356071006589860e-001
      1.1687641335810550e+000 -5.1951363771872539e-001
      -2.8359699505833064e-001 5.8510394817343125e-001
      -3.1207530620377727e-001 -3.6266926555947693e-001
      2.5706078363780843e-001 -5.2664880368790112e-001
      -6.3270620262712643e-002 3.3935952312698664e-001
      -2.5361478930584358e-001 -1.9422650250682444e-001
      -3.7096391527303590e-001 -8.2248355127133341e-002
      3.5863150624070683e-001 -8.2874361170910193e-001
      -2.6811978561114619e-001 -4.3365246323338338e-002
      1.0905821965415212e+000 1.5387164073592957e-001
      2.5494773136551983e+000 1.2698737607282837e-001
      3.9951106481294557e-001 -2.3041677040440997e-001
      -4.0151338476069331e-001 1.9624443599211469e-001
      2.6192593699481187e-001 1.8766416858966381e-001
      -4.0180255061013817e-002 1.7844272244401610e-001
      9.2353080775499174e-001 -3.6512376746165354e-001
      -2.2075212819734524e-001 5.1176251684188312e-001
      -2.6895156215601268e-001 -5.5974870761313099e-002
      7.8124878973422671e-002 -2.8161754877535372e-001
      -1.2504474948693955e-001 5.8230620007977685e-001
      -2.1194519521794680e-001 4.2150107026599545e-003
      -3.1807062401663666e-001 -9.2727466116033400e-002
      3.9442611007015993e-001 -6.0623335704546766e-001
      -3.8423592178447241e-001 3.0314560277563550e-003
      9.7255836244279581e-001 3.3247112329139755e-001
      9.0153080921602780e-001 5.1595285739787423e-002
      2.4971735587176875e-002 3.5491112549084464e-001
      -3.4162803830748806e-001 1.3588565962587834e-001
      6.0669124356701898e-001 1.4365163257050168e-001
      1.5819029347992278e-001 1.5585801558328644e-001
      6.2055809614744406e-001 -2.5386748648894414e-001
      -1.4645391865789145e-001 2.3558778144978362e-001
      -2.2814991550168343e-001 -4.3721861211405706e-002
      6.1138863753477976e-002 -2.3903650491275963e-001
      7.2299777608076377e-002 2.7421958977816863e-001
      -2.6529561683741820e-001 -2.7554553359452033e-001
      -3.5422974028136267e-001 -3.3654422049505850e-001
      3.2357910947912427e-001 -3.2403107970053741e-001
      -2.7543134498414934e-001 -1.3215890121248236e-001
      4.4124598838555695e-001 2.8392439465398855e-001
      2.3224390649946440e+000 -7.2769027454359469e-004
      -1.1979824898301490e-001 2.2887539291060249e-001
      -4.2158114727382534e-001 -9.9572197444252969e-002
      2.1208943762812393e-001 -4.3938085139843119e-001
      6.3560089654295257e-002 1.3833735203562489e-001
      9.7946643239393061e-002 -1.2861893861133877e-001
      4.9260608600713192e-002 5.4393768715181926e-004
      -2.8399514273308618e-001 1.8329321325709225e-001
      1.4822070208530219e-001 2.4734332955365640e-001
      9.3581342523272215e-002 4.1328744268191248e-001
      -1.5790228101584064e-001 -3.7948230667333993e-002
      -2.3089271661790756e-001 -2.2093857943379577e-001
      1.5217965608211215e-001 -1.1878096282282033e-001
      -3.9711320365434954e-001 2.1115331654022473e-002
      5.1947374299394888e-001 1.3689115825363171e-001
      5.2401751671122163e+000 4.5644026961012878e-002
      2.9851044332409087e-002 4.6148800110939345e-002
      -3.7590333004629234e-001 5.6634213135834249e-002
      3.0474121625173489e-001 -6.4619809104356163e-001
      1.5490729948236334e-001 1.9987372218976909e-001
      4.2227412845405105e-001 -2.8324929742863936e-002
      1.9871177541276491e-001 -5.6313292512868325e-002
      -1.3575843834053480e-001 1.7781361729101575e-001
      2.4881940937805401e-002 3.6685458308914239e-002
      1.1258064334619906e-001 1.4622612778694377e-001
      -6.1596567164047038e-002 4.1355810158106111e-002
      -3.0987568960792056e-001 -3.6704512873379963e-001
      2.5861938520025385e-001 -9.4379298261971722e-002
      -1.3328023312256751e-001 8.8283520182619021e-002
      5.0284675596673689e-001 -1.6954447642835525e-002
      7.7897012660428757e+000 1.8650097013283165e-001
      6.1615979240393956e-002 1.0713522365893564e-001
      -2.2905962592999632e-001 5.1594274468975243e-002
      8.3295464110313785e-002 -5.6870131623347309e-001
      1.8680179633674784e-001 -2.2578144009519539e-002
      2.4086847006576936e-001 1.2618319740080366e-001
      2.0424831823036307e-001 1.5194648037051259e-001
      -9.0069408391564340e-002 2.4554448256191283e-001
      5.5366582350150052e-002 7.5191302965218379e-002
      7.4825326658731761e-002 -8.5232159110953179e-002
      2.6587289247658932e-002 2.6961007021659272e-001
      -3.2186420818239653e-001 -5.7050419412106090e-001
      2.6615281659963941e-001 1.1764917871738835e-002
      -1.4190054988678455e-001 -1.2319262219233994e-001
      2.1063463912201674e-001 -9.9583918210064459e-002
      4.7478150033858348e+000 3.6969054856852546e-001
      1.4117525191414182e-001 1.5380499515927021e-001
      -1.1260128670098750e-001 4.0849463744664094e-001
      1.5382501058395376e-001 -3.5121135991104085e-001
      -1.0569348882508593e-002 3.5513965159929795e-001
      1.3183939879771658e+000 2.6332913732728608e-001
      1.8026868730058601e-001 1.1686239712993993e-001
      7.3129331456862692e-002 -1.1709866414972434e-001
      -8.6769274391053308e-002 -1.7294451550664913e-001
      -1.7855013328861710e-001 -1.2012261428760967e-003
      -3.7313760912955893e-002 1.8423634948287299e-001
      7.9665512768341551e-002 -2.7800114831919859e-001
      6.5323576707294995e-002 4.7542416807157539e-002
      -1.6539563837155569e-001 8.9729918405073730e-002
      -1.0662421441210841e-001 2.3962144316341796e-001
      6.7661540272288356e-001 1.6626588315341725e-001
      -8.8088907673226718e-002 2.2390762933649405e-001
      -9.0430671495670717e-002 2.5065285404399412e-001
      -1.0763168316173269e-001 1.8290097202182826e-001
      5.9402276020737842e-003 4.6538751621553848e-001
      1.5464104941910641e+000 1.0608453566398880e-001
      -7.9577680264390549e-002 2.4837121365541881e-001
      4.8848991703200624e-002 1.5503270006475073e-001
      8.8830966367546473e-003 -3.4217439082178230e-001
      -6.7057594032606763e-002 -4.1270725050332330e-002
      -2.6529206417711459e-002 2.1222062565127600e-001
      9.1237708477567875e-002 -6.2269981415646403e-001
      1.5464645140923194e-001 -9.5553443201149210e-002
      -2.5555364012836551e-001 -1.0868941884314778e-001
      1.1814012298915580e-001 1.0313203380606832e-001
      -8.9653187140933288e-001 5.2544830476320858e-001
      1.6354800454391841e-001 -2.2886050869020483e-001
      1.3240629087723491e-001 -1.4951338371615865e-002
      -1.5155731829496638e-001 3.6324647115439639e-002
      -3.7149294041678849e-001 2.3795762605806731e-001
      7.5589133432642031e-001 4.8147086527004578e-002
      -7.1526891838855369e-002 -1.4449287018039375e-001
      -4.3028822591890441e-002 -1.9180762293856882e-001
      -1.8580000224656487e-002 -4.9837161065491006e-002
      8.8196707041888651e-003 3.5384915606687627e-002
      1.3546159467495827e-001 -2.7905795237507913e-001
      4.3142108138163526e-001 -3.7478548049280254e-002
      -8.3607452690588141e-002 2.7430207129749451e-001
      -8.6858411275746852e-002 1.1023997062108230e-001
      2.4314898031147750e-001 -1.8490882276766726e-001
      -1.8970278197390977e+000 -4.1146196874923692e-002
      -2.5241475874099634e-001 -1.5598254101019907e-001
      -2.4745184597451464e-001 -1.2936753474356288e-001
      1.0913919104485406e-001 -6.7392344708187391e-002
      5.5872710443225192e-002 2.7035313169047054e-001
      -7.2474665107903824e-001 2.2923114463255065e-001
      -2.5300306562595754e-001 -4.2318040562908041e-003
      -1.9850719930107522e-001 2.5025089907453402e-001
      5.9168011828240795e-002 2.2809040024364921e-001
      2.8595988228330682e-001 -7.1937103844020134e-002
      -1.1693674621923669e-001 -1.2280457100137601e-001
      -2.1343945263630396e-001 2.1330946802842657e-001
      2.2919155105351596e-001 -1.7727828467949461e-001
      -7.2975141366283136e-002 -7.5426223360914785e-002
      2.2969863638562860e-001 -2.2823461868799616e-001
      -2.7263179391404839e+000 2.5227737235322362e-001
      -2.6268515567648587e-001 -5.6274816950976980e-001
      -1.0886723872804663e-001 -1.0470410812776602e-001
      8.1931374680057387e-002 -3.0898680156951214e-001
      -2.6600857773549164e-002 2.9182177228923628e-001
      -3.6451220446858990e-001 3.5194136299293954e-001
      -1.9570283511643113e-001 -2.0985979293293610e-002
      -1.2647555583303635e-001 1.4011184853245649e-002
      -1.0092811240481109e-001 7.3256803970789389e-002
      1.6838181063620321e-002 -2.2091264666716853e-001
      -8.6438223226086991e-002 -7.2985793785526429e-002
      -1.3409677969333336e-001 -1.3309009509889694e-001
      8.1468160315763358e-002 -1.9304145449654794e-001
      -1.2075978803410375e-001 -1.1596191263847308e-001
      3.1325849780178111e-001 -2.0004478603307443e-001
      -2.6066848783236360e+000 2.4336893536977747e-001
      1.4205392206860340e-001 -1.8422374848942982e-001
      -1.8723028140254611e-001 1.8120336426226366e-001
      -8.5151343013357035e-003 -1.9157549215595776e-001
      2.4323655906900726e-001 -9.8757620754682821e-002
      -2.4468314449891049e-001 1.2072589044528402e-001
      -2.4020597057720541e-001 -4.0502578809148669e-002
      3.6537341222100400e-001 3.4233023545345964e-001
      1.2208063995170691e-001 7.4997655644498992e-002
      -3.4258816335515120e-002 -5.0534454304814805e-002
      -1.1347642712325973e-001 -7.4466257262662941e-002
      -2.2623432629795129e-001 -3.5633366179640341e-001
      4.3195025433202611e-001 -5.4347245105970859e-002
      -2.8790790623767043e-001 -2.9539512247133992e-001
      -1.4124417774346354e-001 1.0751321581326995e-001
      -1.3341428681125778e-001 2.5808473864033055e-001
      1.6812455328940565e-001 -8.5823524995412320e-002
      -1.2711142080308913e-001 -5.0720078034223862e-002
      2.0693216259486105e-001 -2.3484579269293601e-001
      1.9666285732023897e-001 1.0800202624083298e-001
      1.9514432158885098e-001 2.6637381598212695e-001
      5.3113890450362487e-002 2.3607418051998369e-002
      1.6245233092761788e-001 4.0611793063599710e-001
      5.6254866465905849e-002 -1.9784791844403474e-002
      -2.5123944704102052e-001 3.1441599719665522e-002
      -3.4911133319009718e-001 -6.3613699362271167e-002
      -2.0319295528657888e-001 -3.5017465396556530e-001
      9.4577401229371499e-002 2.2146833665302860e-003
      -1.7448777185606124e-001 -1.5833392050900111e-001
      -4.7378957811287425e-002 2.4327250261473093e-001
      -6.2391087681827884e-001 2.1134986889266780e-002
      -1.5826376476310028e-001 -3.0129223301499791e-001
      -1.1143411042603235e-001 -2.2308729971096716e-001
      2.0876363916856491e-001 8.2469528284720428e-002
      1.1754414726181488e-001 1.1465721675128056e-001
      -4.9755708953295098e-002 1.5673995567347590e-001
      4.5865474321891447e-002 -2.6767857020437236e-001
      9.6066062672295699e-002 2.9224584395899694e-001
      3.8637318329927228e-001 -1.7319342848295460e-002
      -7.0864864305188430e-002 -1.0207421825822180e-001
      -4.2043934659988647e-001 1.8091545231367495e-003
      -3.4133905761903238e-001 -2.9688964286165193e-001
      -1.9315962474790427e-001 -1.0866137078867845e-001
      5.1908613289499111e-002 1.8284466885313239e-002
      2.4859916129035051e-001 2.8531687304617975e-001
      2.4234505855333234e-003 -4.3735991174022444e-002
      1.6490481889878700e-001 -3.1787566111389526e-002
      -1.1845761344906224e-001 -1.7624159231768899e-001
      1.6332530400538875e-001 5.5489193202076771e-002
      2.2334099912565193e-002 4.5202654731254031e-002
      8.1472876499748534e-002 -1.1382600556504824e-001
      -1.1978256784339820e-001 -2.7929655533469827e-001
      1.0526566552185508e-001 -1.0664739415643262e-001
      1.8290647677653216e-001 -2.4815843716849437e-001
      1.2186280991246543e-001 -1.6094920917126498e-001
      -3.0162513706279126e-001 1.4739985600055094e-001
      -3.3373936011252275e-001 -2.4816208448469429e-001
      -1.5098578464662682e-001 5.6259404907106791e-002
      9.7367694159794863e-005 1.0680696989317386e-001
      1.6235900835372294e-001 1.4558445627799677e-001
      7.1509505518604144e-001 -1.0084604895606565e-001
      -2.6061333344436766e-001 -2.5188599220370489e-001
      -1.6557561096104784e-001 -8.9757153255090039e-002
      1.6766458883603860e-001 1.6316987986678602e-001
      2.5136950367059213e-001 9.0337458314762864e-002
      1.6930484892209161e-001 7.4969038510565239e-003
      -7.0040008923230122e-003 -6.8325644827288923e-002
      1.6474754011134282e-001 7.4941567329343936e-004
      3.0491394019671525e-001 -1.1003696889300116e-001
      4.1966942783021982e-001 -3.5861091463990491e-001
      -1.9037802554131669e-001 -4.3186871748466339e-002
      -3.7440053188280786e-001 5.0170689352598545e-002
      -7.4412477560563406e-002 7.7250734906696525e-002
      -1.0780507566641238e-001 1.2245503224673379e-001
      2.9989045660200025e-001 1.8472474751539236e-001
      1.1784894416389344e+000 -1.8397628403637203e-001
      -7.2611959730046902e-002 1.7816990937383501e-001
      -8.7400407602559418e-002 -1.5998012349582522e-001
      1.6279168783814363e-001 -1.1245202428091440e-001
      5.5662041317584128e-002 1.3839156096004551e-001
      1.6934994906192757e-001 -7.4055134635718847e-002
      -1.2500361351125636e-001 7.4924607479478197e-002
      -1.4530233910432305e-001 5.6908660176473370e-002
      -1.4380949390132075e-001 1.4790762001612764e-001
      4.0113234706321599e-001 -2.5298619683996021e-001
      -9.8340970835950670e-002 -4.0280189283356765e-001
      -1.2060472881635982e-001 3.2013769695726550e-002
      8.9415681202077671e-002 1.4043369365526751e-001
      -1.3972487939694739e-001 -2.2324743506411521e-002
      -2.1857858519983181e-001 2.2679511995904378e-001
      3.0422012315687419e-001 -1.8135698288923398e-002
      2.5505954470825565e-001 4.6560038697742549e-002
      -3.4918640123386441e-002 5.7253058784477957e-002
      2.9529734433074262e-001 2.3741616711992558e-001
      1.5123781798689942e-001 4.6022086229849368e-001
      4.3373673716750322e-001 -2.7640854919855873e-001
      -4.2919060891281513e-001 1.4385576148054155e-001
      -2.7171910765096019e-001 5.5127087405987353e-002
      2.3994420898237509e-001 1.1335189096982926e-001
      2.4914110452179866e-001 -2.6101802463583479e-001
      -3.5982119588095690e-001 -5.2633643381267714e-001
      -3.0220208219264605e-001 -1.0140868852250391e-001
      6.7450451791265326e-002 -1.0554257620232864e-001
      -5.3667530685128528e-001 2.1849296854917401e-002
      1.1419562702899641e-001 3.7669981385384232e-001
      5.1947994614109072e-001 2.1587827329095763e-001
      1.0399050492366393e-001 1.3199033161347060e-002
      -5.1140767359972042e-002 1.9460766178821234e-001
      -1.1894361987435606e-002 1.6427503907545712e-001
      7.1960664939782308e-003 1.8528162663028100e-001
      3.1581455834062305e-001 -4.4024156631820172e-001
      -2.9851557960920516e-001 3.9710398356516297e-002
      -1.9354181384088195e-001 1.9053737981242572e-001
      4.1278824457246781e-002 -5.8508703351407634e-002
      -9.1760068536497989e-003 -9.8314437338650196e-003
      -9.0921588443337392e-002 -2.2848944815130126e-001
      -3.3169457545949221e-001 1.4200687978101653e-001
      -3.0033431548240428e-002 -8.1515881260392595e-002
      -2.4880420904547726e-001 3.3842586652894718e-002
      7.1920243958494168e-002 3.1028355565873850e-001
      -1.4542141218523901e+000 1.0261760988561318e-001
      1.2920635844113459e-001 -1.5852509408786888e-001
      1.4394779058159829e-002 4.1151233398541465e-001
      8.4337975229872894e-002 1.0113920640984828e-001
      7.2042228112091877e-002 4.9909941275176034e-002
      3.0244685221167128e-001 -2.7834084406707527e-001
      -5.5853632856582298e-002 3.1147944881120249e-001
      -2.0807126407746293e-001 2.7876576984226343e-002
      2.0292315716395667e-003 -3.8601692830214474e-001
      -7.7296620556218637e-002 -1.6422307078922546e-002
      7.4314428682661004e-003 -1.2989066392914719e-001
      -3.1736755446568499e-001 7.8196814477305296e-002
      -9.4998142604174857e-002 -3.8797641027081142e-001
      1.9656158673881480e-001 2.3904769792641550e-001
      2.6047899151685283e-001 2.2125974075258518e-002
      -9.7467933182680419e-002 2.0299655612198159e-001
      3.9708057714915007e-001 9.6309571532590663e-002
      1.5747286523565438e-003 2.9656556753610480e-001
      6.1645547591960427e-002 3.6369108294303835e-002
      -2.2313130131015849e-001 1.4913669894308923e-002
      3.4851701164540139e-001 -3.2865169855421893e-002
      -2.5780460431339074e-002 4.0575563506249246e-001
      -1.4200327081132022e-001 -8.5854044834222473e-002
      -2.8424039721345790e-002 -2.5610774250991764e-001
      -1.8933989971454021e-001 1.6749137039403234e-001
      5.4460911813202263e-002 1.5941871509119665e-001
      -1.7408271683940815e-001 6.7328605375778075e-002
      2.0431712462308699e-001 -4.5905725904250322e-001
      1.1023234961255512e-001 2.0613659288052694e-001
      1.8708364184463525e-001 1.1166572164745792e-001
      2.5935173569113135e-001 1.7396806606150722e-001
      2.6121258264066893e-001 -2.4406209082548566e-001
      1.4276764278098750e-001 2.9266986374416293e-001
      1.0887924739203367e-002 -1.8494235677423435e-002
      -3.7677256093293798e-001 -6.6550821763769710e-002
      4.2205656388003004e-001 5.4763246152307245e-002
      2.3308582807834086e-001 1.4336533092110224e-001
      1.0132435118579175e-001 -8.4042801413678911e-002
      -1.9993318070104288e-001 -2.9538609931751360e-002
      -4.5039225289471163e-001 1.5477006922582820e-001
      1.2618006767979625e-001 2.0628190572442789e-001
      8.5581181331190609e-002 -1.3542094919565012e-001
      2.5880714381575080e-002 -2.8013017848915400e-001
      9.8669176602624878e-002 3.0821866528992620e-001
      1.9188117034405922e-001 1.0163466443675166e-001
      -1.5111985911491816e+000 9.5257814151577344e-002
      1.2684469241617810e-001 1.7148826517602561e-001
      7.0662926269027440e-002 4.4633203264857320e-002
      7.4198940930972927e-003 -2.3825550863314011e-002
      1.0730080306763595e-001 -3.7091285330536974e-002
      5.1703471139725998e-001 2.0726762161037993e-001
      3.1377819103767823e-001 3.0820262563649120e-001
      4.0841712203455435e-002 -6.1991383721962751e-002
      -1.4733996773693270e-001 2.0903274121312357e-001
      -1.8957727553647466e-001 2.2672015276207744e-001
      1.2361120775556259e-001 4.0006242286337909e-002
      -3.2345366210980014e-001 -1.5455559428461013e-001
      -6.1397575736911953e-003 -1.1718093346919574e-001
      -1.5432644078231117e-001 1.5304216525365033e-001
      2.1555082124340816e-001 -4.0854701055182796e-002
      -1.4200992729845714e+000 -1.9455420128714468e-001
      1.1432631240167720e-001 2.9719442646987365e-001
      1.3802844362486663e-001 -1.3510418483977531e-002
      -1.0909013461077349e-002 -1.0568144364450216e-001
      -1.5809095401910359e-001 -2.8211798480901173e-001
      -1.5054930938672331e-001 2.6481083302473513e-001
      2.2960842653267863e-001 1.2083502200377555e-001
      -7.8495968238475447e-002 -1.6552426531258188e-001
      -1.4995618879462785e-001 1.3796160578793526e-001
      7.6068994054941316e-002 1.4230548637940579e-001
      1.7139498909228532e-001 -3.4284181959952524e-002
      7.0778011348337277e-002 3.9741970472467684e-002
      -9.5476516297162722e-002 5.5177477583909167e-002
      -9.0959820498088179e-002 3.0163702767002556e-004
      -2.8627779706373158e-001 -4.8682016522629525e-002
      1.2567614577897577e+000 -1.8811135466856160e-001
      2.1451711770215834e-001 1.8711265938054092e-001
      3.8612613209617710e-003 5.9316777905972784e-002
      1.0014808359972875e-001 -3.3001424365145893e-001
      -3.0762776910367190e-001 -5.1890880420650809e-001
      -2.9385727690602120e-001 -3.8716400022791690e-002
      1.7783787013168675e-001 -7.7964286959611731e-002
      -5.2206094281092442e-002 -5.3774160549463650e-002
      2.3912831668375305e-002 8.2020191231645903e-002
      -1.0671035414321274e-001 1.9057813705776003e-002
      3.0112469309438900e-001 7.2045903313922771e-002
      3.9261861156845981e-003 2.8361735578134450e-001
      -1.1686593574086944e-001 9.8181249593732173e-002
      2.1020687979645558e-001 -9.4868683742101348e-002
      -1.9879908956056860e-001 -2.6475776962729225e-001
      5.3106314199760769e+000 3.4683598106269378e-002
      8.6917452369095760e-002 1.2201891269082607e-001
      1.3169596652559594e-002 -5.9141398819480016e-002
      5.1750059365332730e-002 -4.8557914732874841e-001
      -1.1446061018468232e-001 -1.1627957744737639e-001
      -4.3475191186912621e-002 -2.8141537582510007e-001
      2.6121618333832292e-001 1.0221669673873426e-001
      -2.4055196404352927e-001 -5.6239630916943295e-004
      -2.9137944798434523e-001 1.6203394103148441e-001
      -9.6634830527129650e-002 -2.8194860891460349e-001
      7.1230791291989601e-002 1.6290999934054048e-001
      -4.4670576549344608e-002 6.1023817878405183e-002
      -1.4156766553494954e-001 2.9820432467829287e-002
      5.5604501800590367e-001 -6.4673771876321673e-002
      -3.9178154367204410e-001 -6.7830267379493547e-002
      5.1107822710037656e+000 -2.1517557683083111e-001
      6.9461193629187179e-002 3.9330677210041715e-002
      -6.8664871645247705e-002 -1.1392307270765681e-001
      2.5971787522139876e-002 -2.5620843176669611e-001
      2.0580779143750734e-002 -2.7133867375133350e-002
      -1.9336909254243032e-001 -2.0461588444182446e-001
      9.2566230022020621e-002 1.4990624738490418e-001
      5.9052198458793656e-002 8.9722649603123414e-002
      -1.4060445498545135e-001 -8.4380435323377745e-002
      4.9299681996830186e-002 -2.8760979608154630e-001
      -3.4035574406709512e-002 4.9170993373676287e-002
      -1.8972342840486980e-001 1.7336434176474164e-001
      9.6312363942522933e-002 5.0856087572794459e-002
      5.1933383051412196e-001 3.6986830350992872e-001
      -3.3737694346072727e-001 -3.4479245666928415e-001
      5.9890674053116510e-001 -7.7465183399369308e-002
      1.3832918058131263e-001 1.5014602722372600e-001
      -1.0187127051990076e-001 -1.3255550907887337e-001
      -3.1862229338119816e-002 -5.7830446308713722e-002
      -4.7390411357920150e-003 5.2838215626264828e-001
      7.6739257160078511e-001 3.9751331176668092e-001
      -2.8797702872931041e-001 1.4025615612354639e-001
      -2.5122447755340555e-001 -5.6232486764426666e-002
      6.8647297217039854e-002 4.4307302698206964e-002
      3.0080433046953854e-003 -1.6285811872057865e-001
      -2.4219996874006514e-001 1.5410852838355404e-001
      -7.8689773936862287e-002 -1.5068250775902533e-002
      2.0010001818420716e-002 -1.7667911910845216e-001
      3.6131747749845136e-002 8.1483283556188571e-002
      8.7348485106909207e-002 -1.6804188072985671e-002
      -8.2806929444433275e-001 -4.1554485375448869e-001
      -5.6804277116540994e-003 -5.2392228192190404e-001
      1.4359442481898449e-001 1.4805764428046342e-001
      -3.0990383061308940e-002 -2.2016705405842651e-001
      -4.3306551561174259e-002 2.2796265324876869e-001
      -1.0952578196323971e-001 1.3395012367281321e-002
      -5.1982406236736300e-001 -2.6717799798287334e-001
      -2.2732654728479101e-001 5.4446120641296218e-002
      -8.8674033381585762e-002 -2.5513760036591569e-003
      -7.3243654099657968e-003 1.6837425998569910e-001
      -4.2419056715806078e-003 -1.4625500303004679e-001
      2.5583497884939861e-002 -6.9455191089094490e-003
      3.9763698728334035e-001 -2.2035904089813871e-001
      1.6961073072621691e-001 -5.6027013332182618e-001
      3.4063349802776921e-002 -2.6999426214369376e-001
      7.8897325522593742e-001 -4.6242783766965506e-001
      -1.0005335877478272e-001 -2.4854588157014876e-001
      6.4625993445173030e-002 2.5619498237901778e-001
      -4.7968702702528607e-002 -8.7832508759573838e-002
      -1.7857364281770419e-001 3.8136527632271773e-002
      2.0152293813490954e-001 -1.6425003817593445e-001
      -6.1525835698770426e-001 2.4674886762325887e-001
      -1.9757107338873044e-002 1.2943031962828494e-001
      -2.4454229158202115e-001 4.5484843644264432e-003
      2.6891330320001344e-001 6.7882644512687426e-002
      2.8073480218844526e-001 -2.8809745092263761e-001
      3.2653944998423307e-001 3.1996568995666563e-001
      3.4758144378327571e-001 -3.5985052670279190e-002
      1.5795996280092296e-002 -3.2044098246028219e-001
      2.0211712313050672e-002 -3.3732353961279649e-001
      1.4430597820956568e+000 -1.0973791827173583e-002
      1.9982090243663084e-001 -6.6687139329395295e-002
      1.9548654955515501e-001 -1.8051367805834395e-001
      -2.9898374560572255e-001 -2.6637625433490422e-002
      -2.7516408597628350e-001 -1.9261194338826618e-001
      -1.0239990652008919e-001 2.0325131106378438e-001
      -3.1667387258654278e-001 -9.6360810894791246e-002
      2.0774065283890111e-001 -2.7364478212956478e-001
      -1.4792785986077753e-001 -5.7457413848309935e-002
      7.9101186486814051e-002 -3.4429349946818857e-002
      1.4254288498471201e-001 3.1951619950121324e-001
      1.8703346757167921e-001 -2.5098611163919843e-001
      3.2675609419923500e-002 2.3548762673484808e-001
      -3.9884967373347621e-003 -5.1165597158279685e-001
      -7.8501945205204926e-002 4.4419120534265659e-002
      -4.5582241305658261e-001 3.8838990743403322e-002
      8.3826232303689421e-002 -1.8273929443855430e-001
      -6.2922203287000711e-002 -3.7167229898940335e-001
      -5.0495756499903243e-003 2.5295228310426460e-001
      -1.0445119001348524e-001 -2.6071070266644319e-001
      -3.2011052647058752e-001 9.3959790734036902e-002
      1.1526241214751250e-001 -1.8742775087778596e-001
      3.7489453406506129e-001 1.3742712830487394e-001
      -1.0477544525901783e-001 -2.8879276004034199e-002
      -7.7163694777566572e-002 4.0208436069869563e-001
      -1.1717106633858193e-001 1.4617223931229470e-001
      -7.7530372103358461e-002 -1.2572464945107739e-001
      -3.0618368624543674e-001 -8.1559852211517247e-003
      -1.5291056552433208e-001 -1.9158346982632055e-001
      2.1919679704178482e-001 2.1235222662657677e-001
      -7.6145969837330496e-001 8.7259547269478877e-002
      -6.7152022489130395e-003 -8.3587179593182862e-002
      -1.1404310581476017e-001 -3.6467813316544112e-001
      1.6174835816238753e-001 5.0810008095758030e-002
      2.6776678077187473e-002 8.2508525332222221e-002
      7.0052041864733727e-001 2.5111175826542165e-001
      3.0331794024119252e-001 1.4628337072599479e-001
      3.3982578184774481e-001 2.9034882149267915e-001
      5.4176028384924739e-002 -1.7132360162922636e-001
      -2.1273905825691808e-001 1.0362027031045259e-002
      -2.2608607236968573e-001 3.2652242219867827e-001
      -1.6736341996218743e-001 -5.0345382879915801e-001
      -3.6844261523364336e-001 6.1524145740968782e-002
      3.1742835181159258e-002 -1.9564179550064656e-001
      1.7370690114955831e-001 5.1124834092237348e-001
      1.4539182508995161e+000 2.4983201238675284e-001
      3.3169604840859285e-001 -1.1688085078444875e-002
      -7.3756809912897084e-002 -3.3967984327492795e-001
      8.5390682834807052e-002 2.0258898650021459e-001
      -1.5170787346862827e-001 -2.6178767527903596e-001
      3.2030074666433650e-001 1.0966495408281336e-001
      6.6055423309813233e-001 1.3929384910294748e-001
      4.0029461180287257e-001 -2.3762866602460093e-002
      1.5545021287519330e-002 -3.0897426022414926e-001
      -5.2982215421954089e-002 1.6343443967714907e-002
      -4.1373523415255138e-002 2.9674642507698329e-001
      -1.5365939474450244e-001 -3.1011369117361448e-001
      -4.4163970752734044e-001 1.9707409470068391e-001
      2.4213421670928884e-001 -2.4927141735090108e-001
      2.2358538516475537e-001 5.3046963227738142e-001
      -2.2583692222118046e+000 2.6708711675867475e-001
      -3.4691808787699209e-002 -4.5124817269026431e-002
      -3.0520927190323427e-002 -4.9058288313921700e-002
      1.6338654895959179e-001 8.3827305740120178e-002
      -3.7552449496554105e-002 -2.5015943801451218e-001
      -2.1950860104844622e-002 -4.9597034727587608e-001
      3.4773496537589654e-001 2.6663143407305118e-001
      1.8607422389034514e-001 5.6041047355452891e-003
      7.7284823280968501e-002 -6.4660067703589105e-002
      1.4274354057579500e-001 2.1062187146726166e-001
      -1.4840000200565470e-001 1.5180171265296169e-001
      -1.1603327468524115e-001 -1.3263853780842402e-001
      -4.3048629391149795e-001 1.4925841064259265e-001
      -1.2505261975285424e-004 -2.1724837326836313e-001
      1.8271475838291829e-001 3.4021865167148524e-001
      -4.5287206632759096e+000 -6.0574537518818465e-002
      -3.0822101391486068e-001 -1.6521552711449949e-001
      -3.6987744540664086e-002 1.9397746738188640e-001
      6.9719551951415909e-002 3.4685346357584572e-002
      3.0317612395814745e-003 7.6300778027608457e-002
      6.4410372785820402e-002 -2.8742934250268015e-001
      5.7634453081364743e-002 9.2673196457611157e-002
      1.1874080380303774e-001 -1.2175615286205878e-001
      2.4501358677434340e-001 -9.4165491446307523e-002
      3.4217107724667556e-001 7.5021173175838327e-002
      -4.9051682061711274e-002 2.9296393017817529e-001
      4.5279564388172613e-002 -1.0473384076142306e-001
      -4.8415434992941159e-001 3.8754857295140499e-001
      2.1926769738412691e-001 1.2649172860954225e-001
      4.0928727461564945e-001 8.1274441417807916e-002
      -5.1001507992499411e+000 -1.1760718153855752e-001
      -2.4223063454990976e-001 2.8089501437373188e-001
      -6.9735587962050538e-002 1.4869573882767836e-001
      2.5776016838790139e-001 -1.0107781798092222e-001
      -7.4660633742628699e-002 -2.9516744381289300e-002
      4.7524186949969849e-001 -1.6676551535694967e-001
      6.2827463951123472e-002 2.6172730016317608e-001
      1.0196929233454757e-001 -2.8897909518626730e-001
      7.6643377526960307e-003 5.7354513353994968e-002
      4.0124867773274447e-001 -1.5908427298914221e-001
      1.2256053703501782e-002 -3.4538695926062007e-001
      1.1711849740810029e-001 5.7836371621354898e-001
      -2.7528244113624217e-001 5.1819480893657810e-001
      -3.5076820692405730e-001 1.6687770904952645e-001
      8.9723243191883420e-002 -2.6371279000004166e-001
      -5.4458290521672037e+000 2.3150886089597880e-001
      7.0496984298253365e-002 1.6078460028356036e-002
      6.4668714654987150e-003 2.5384657106897562e-001
      1.3506567115721399e-001 2.0505002768677862e-002
      1.1518816566167826e-001 3.2950395301119489e-001
      2.0311915210274806e-001 -8.1179598446588147e-002
      -4.7829361202732557e-001 1.2485170165124089e-001
      -1.8558567661975367e-001 -4.3486731402780748e-001
      1.1866394991809014e-001 2.8519454897243574e-002
      2.5509151514003875e-001 -8.2225904045475917e-002
      -9.8683978550221665e-002 -9.4189620095210946e-001
      -1.3647848654057296e-001 4.4869575245559074e-001
      3.1593826556839608e-002 3.3159714554946962e-001
      -7.3636522468995935e-001 -7.2205435983880975e-002
      -4.5342702641648712e-002 5.3991191561972726e-002
      -5.1955264283606812e+000 6.6612588335560041e-001
      -1.5936257031166245e-001 -4.2866766490531411e-001
      -6.4442113860756864e-002 6.2449533662665191e-001
      6.1512492675646471e-002 7.0657593799832372e-002
      8.5890683908602369e-002 2.4032146774116092e-001
      -1.5561360800554824e-001 -4.2941593224092556e-001
      -4.9063730131954381e-001 7.6778780946890543e-003
      -9.0647350703857751e-002 -1.2707776816641259e-001
      8.0989405535190656e-002 2.2428799913332789e-001
      5.4096747925093815e-002 -2.8290728586797831e-001
      -1.3126866717879948e-001 -5.7064199676847793e-001
      8.5836513241659557e-003 2.7397205831965371e-001
      -3.7231497829352200e-002 7.4155607120016953e-002
      -2.5354484652668779e-001 4.1514615022079288e-001
      -1.2106422442287995e-001 1.1707181426225677e-001
      -3.6482214262795361e+000 4.9397123263699833e-001
      6.1084151521336094e-003 -6.3200997109602319e-001
      -1.7615929558456761e-001 4.2044776073265222e-001
      1.3627491982213003e-001 8.8247382771651173e-002
      6.9985454444917161e-002 -1.1726560105561111e-001
      -4.6248618968887045e-001 -8.8068803600807211e-001
      -1.9517761635370726e-001 -4.6607525685075897e-003
      -7.6933418466793357e-002 -4.7847281534679278e-002
      2.5371832579253384e-001 9.4461568505774779e-002
      -7.9804279364388803e-002 1.9349238715496462e-002
      -1.4728875707486153e-001 -8.7600647404530052e-002
      1.6924029070236746e-001 2.8343622123539952e-001
      -1.8575834227357606e-003 -1.8940777374937667e-001
      2.6238048305487923e-002 9.6749593541247292e-002
      1.3658575048151386e-001 1.3345651437399594e-001
      -4.3832969521988552e-001 3.5741839507430795e-001
      2.5096690529434457e-001 -1.2410340154428061e-001
      -4.5936423522785035e-002 1.2034759939632572e-001
      -1.1571024125374953e-001 8.7464420473629650e-002
      -2.4797529498397608e-001 -7.1784400284141278e-002
      2.2864724371752236e-002 -2.7656047430838837e-001
      1.5993986975759201e-002 -2.8535208239888898e-001
      -1.6445148749973798e-001 -4.0311146480098960e-002
      -1.1586645386301490e-001 2.8236457508775503e-001
      -2.7917834123327301e-001 2.7708263031502967e-002
      1.1947427176840635e-001 -2.3991187777184755e-002
      4.2564879125377142e-001 -8.0690785000796586e-002
      7.7585996659020273e-002 -1.9085338250134889e-001
      8.2942912732355434e-002 2.0605735098330344e-002
      4.2088657478422181e-001 1.7092106887525096e-001
      1.3239311752330918e-001 8.7645749240150381e-002
      5.1872129967256586e-001 3.1241180440496619e-001
      1.3187450888943061e-001 1.9807294299436123e-001
      -1.6446358906385836e-001 3.5743235940998694e-002
      -3.2717874904268340e-001 -3.4378185173588684e-002
      1.2275966104553734e-001 3.0876985101515064e-001
      1.6809231974818417e-001 -1.8805043101859523e-001
      -7.4840407981181301e-002 -5.5359223119978596e-002
      -2.6186434718370100e-001 2.8519304242708049e-001
      -2.3141267045289191e-001 -8.8385416877414608e-002
      2.6311808745504872e-001 4.6921201409224893e-002
      2.8099160292143205e-001 -4.1087196598769866e-002
      1.7198649350981565e-001 -9.2660508450800469e-002
      1.2397243893074794e-001 4.5942598965538976e-002
      8.8572222992823260e-002 8.7908708614532829e-002
      -2.3855201671641941e+000 -1.4462667739675847e-001
      3.9619583157509547e-001 2.3409260427529754e-001
      1.1725701252542685e-001 3.0742883133650761e-001
      -1.8466801084072657e-001 -1.6439136712473959e-001
      -4.4898430292251268e-001 -1.4302774725628323e-001
      6.5786504744291166e-002 1.1497615474670300e-001
      2.0592101528519879e-001 -4.5463348326387494e-002
      -4.3832277682937661e-002 -9.1868030831842029e-002
      -2.3396687051616841e-001 1.4640727823337074e-001
      -2.0489246392381422e-001 -5.2560712289402726e-002
      3.5171733786418446e-001 1.5846658016800763e-001
      3.4035188412595191e-001 1.3851897338257511e-002
      1.4402418393147670e-001 8.4184737352041308e-002
      3.3145742342267559e-001 2.1480936539506662e-001
      -4.2100675329537268e-001 6.1162379266168430e-002
      -1.7925037898041360e+000 -2.1850143985085449e-001
      4.2752840189284373e-002 2.3334867336999288e-001
      3.2284964595086965e-002 2.4766927004906000e-001
      -3.0011496326747628e-001 -2.5500600979278587e-001
      -2.6043011411278916e-001 -2.4217990204644163e-001
      -4.2487655441081024e-001 3.4782680873598849e-002
      2.4860369759656754e-002 1.0289093350492582e-002
      -8.4786628670760047e-002 7.1590228598833197e-002
      4.4012295788034693e-002 9.0024003364782848e-002
      -3.2557321228554970e-001 3.0559542198930315e-002
      1.5957328525574949e-001 6.6361358481470761e-002
      3.7585189681721065e-001 -1.1126232797740339e-001
      3.9913416648941347e-001 -1.2443092524892375e-002
      4.3858250414096095e-001 2.4330124168387552e-002
      -5.9708193027279532e-001 -5.5914410343088111e-002
      2.8665903438328182e+000 -4.2455286255764257e-001
      2.7760790413480957e-001 -1.2469071466281637e-001
      -2.0957151700923429e-001 1.1729980918787315e-002
      -1.1535698347481453e-001 -2.9058720446049641e-001
      -3.2883928046739966e-002 -4.8973581785608883e-001
      -5.7123852889118554e-001 -1.2879000481913635e-003
      -2.2566723902258237e-001 -1.5150747062708397e-001
      -1.5902817694428048e-001 2.0987568619624603e-001
      2.7943358682311514e-001 -4.0739826179825250e-001
      -7.3915299288288522e-002 1.5343642213342721e-002
      7.6762620816440688e-003 -2.4189013510537563e-001
      3.2967289788668674e-001 3.4808137592347382e-002
      3.9207014602368057e-001 2.2933848653066274e-002
      4.9568643946700047e-002 3.7188714569802491e-003
      -3.2870148396343757e-001 -2.5225004052508510e-001
      3.7552006859118263e+000 -2.9397004979334723e-001
      5.0579094105778641e-002 -2.3982835542158251e-001
      4.0684754073614368e-002 8.6614010127880905e-002
      -3.4944109167355179e-002 -3.0974556260435526e-001
      -8.6263868031211301e-003 -1.1334154213734814e-001
      -8.2332604257408359e-001 8.3114303375982322e-003
      4.5565406683630419e-002 -7.5415034803067507e-002
      -5.4757396417118624e-002 2.5954203907217221e-001
      7.7063914364350228e-002 -2.3463769710271304e-001
      6.6985936967282111e-002 -1.2397910974438746e-001
      -2.4078153353663626e-001 1.2231881133167717e-001
      2.7970967319226308e-002 2.8284196114867621e-001
      3.1217842037132695e-002 7.6280763320601574e-002
      3.0619525356051497e-001 1.2144145481134596e-002
      -4.8590049795013759e-002 -2.7043014017720496e-001
      2.2096584523549452e+000 -3.6748143634047920e-001
      -3.4038426144576495e-001 1.3127410962692737e-001
      -5.2391712536524311e-002 -2.5323629371840384e-001
      -3.5539425575815353e-002 -2.3259205670779945e-001
      6.6714237250616495e-002 -1.0713703594290898e-001
      -6.7470526006717169e-001 -5.1958517210882238e-002
      2.2025473362935674e-001 -9.8430553243599617e-002
      -2.7148690831177008e-001 3.8817807371162838e-001
      -4.9286643302526682e-002 -5.2925056974224349e-001
      2.4748763522770020e-001 -1.2502027355599449e-001
      -1.9390544421382588e-001 1.4727248405609533e-001
      -4.1280987734030137e-003 4.3799344873235280e-002
      1.9237873523779472e-001 -2.3495015436666985e-002
      4.8978601661913762e-001 2.7128214603647849e-001
      -7.2521729339640267e-002 -5.4549375773453956e-001
      9.3522204993171404e-002 -7.0875194221311744e-001
      -1.4186403768289671e-001 -1.3513109109131036e-001
      -1.5693851421095620e-001 -3.1674935369783719e-001
      1.4812953583482749e-001 -2.7406881636647534e-001
      1.3976145057319239e-001 5.2923597554832981e-002
      -1.0716080204262020e+000 7.0439115397281191e-002
      1.8099167575486338e-001 -1.3936959982671290e-001
      -2.1551307575626263e-001 5.2525598205266377e-001
      4.1043443713445881e-003 -2.6276189367776448e-001
      1.3571339221755277e-001 -8.0949362270427219e-002
      -1.5612137756845995e-001 7.8489617018366292e-002
      -5.2141682107237845e-002 1.6548242403470315e-001
      2.3080506817403795e-002 2.5461699444094332e-002
      1.5748033336268868e-001 4.2314930112445270e-001
      -2.3189585387042636e-002 -2.6181065032170031e-001
      2.5009159395975860e+000 -5.2787615120740550e-001
      5.7051105146002125e-002 -5.9012839440137688e-001
      4.7822992115796098e-001 2.9178943267697116e-001
      -9.3117549427484667e-002 -3.9323269528737159e-002
      -2.1404369327032524e-001 8.9182129441756249e-003
      -5.3714054908022155e-002 -3.1937142548858932e-001
      -4.3370079653574478e-001 5.2394005751958565e-002
      -4.0267766934075311e-001 -1.1816393997671970e-001
      -2.4315971775608153e-001 2.1303589077495577e-002
      3.1010175662146084e-003 -1.2938785855840501e-001
      2.4163869432789903e-001 -1.6961675771563733e-001
      3.2796667654943867e-001 1.8099999609162620e-001
      3.2915044968873797e-001 6.1421617942711774e-002
      1.8843292697751074e-001 -6.0051957540258372e-001
      1.7258448140448832e-001 -3.0437280785375381e-001
      3.3243450314799166e+000 -6.5738538117349044e-001
      1.5471312867154316e-001 -2.6078232782356936e-001
      2.2105587500867577e-001 2.6572403940003120e-001
      -1.6074679203514070e-001 -2.4380844678612795e-001
      -2.8514815062376664e-001 -1.2786054702717073e-001
      5.6903575249494864e-001 -1.6839529641123988e-001
      -2.4294844273894278e-001 -4.6828950481466486e-002
      -4.1651400944347217e-001 -5.7897822413589917e-001
      -3.2867743490189283e-001 2.5700109016532185e-001
      -7.7143405735271477e-003 -2.7043638499857309e-001
      2.7858932380737528e-001 1.1809648981868384e-001
      3.1483977677724084e-001 2.6185810873060233e-001
      1.3122482763953869e-001 1.0099105751528850e-001
      -7.8176191691574026e-002 -6.9289475739934436e-001
      -2.1305222248083683e-001 -7.3329695374729131e-001
      3.2094166057024656e+000 -2.1264129638263318e-001
      2.8608307340403322e-001 6.6450822391841011e-002
      2.8630470561087606e-001 5.4003557660187766e-002
      -1.0249287297828813e-001 1.1214558658907119e-001
      -1.8070285679116263e-001 3.6236293516268542e-001
      3.9362037795691129e-001 1.6420384684311037e-001
      2.0722819552181737e-001 -8.2469682643415948e-002
      -2.6895564134216882e-001 -4.9358948812135861e-001
      5.9011232201347824e-002 1.0540533488447022e-001
      -7.7170121660941563e-003 -2.2745841683816853e-001
      -2.5249441221629570e-001 -2.2552982175886284e-002
      -5.5959869034371917e-002 7.1703876612816062e-002
      -7.1216798691136465e-002 9.0264176902829119e-002
      -1.2757070155932865e-001 -4.4153408175528863e-001
      -4.5246399656925596e-001 -4.9308217379965619e-001
      2.2900994104244843e+000 2.8450610503305096e-001
      1.9872105205671098e-001 3.3412348442370188e-001
      -1.8947505240133292e-001 -2.0806857741690193e-001
      4.3899967346995902e-002 2.6471734981832568e-001
      -2.8899956167148322e-001 9.8067076249987631e-002
      6.7699566384767862e-001 -1.2118858255485770e-001
      5.0940504408257503e-001 -2.2162145660309010e-002
      -2.1752881931708265e-001 -3.6969613799401024e-001
      1.9013878383906574e-001 -5.1048701678488868e-003
      -2.9794851839746234e-001 -2.9064458831682422e-001
      -1.3388487995048654e-001 3.1356402268218847e-001
      1.1628090660210279e-001 2.1752361699670433e-001
      -2.3378217406796478e-001 9.9661623024707532e-002
      1.4554169170859232e-001 -5.9016050525748498e-001
      -1.2152578391234312e-001 6.5699295330336374e-002
      2.1068816460906068e+000 2.9898605996111594e-001
      5.6257335166605138e-001 1.8608858536092435e-001
      2.5545812691136688e-001 -1.8123191599702859e-001
      -5.5773816635135082e-003 5.2850096961084503e-001
      -3.6595170549860917e-001 2.9380453574706485e-002
      2.8938128107412170e-001 -4.4370943018840320e-001
      7.5195224438282204e-001 3.5038057477851137e-001
      -2.3730432947033253e-001 -4.2824728875789719e-001
      1.6489493620624404e-001 -1.4409627304569111e-001
      -3.3190399041332685e-001 -9.8921820085246179e-002
      -4.6440576522407538e-002 4.4390602393692513e-001
      -7.1904217108300680e-002 1.1408328840655603e-001
      -2.7980829055696835e-002 7.5260672853775898e-002
      1.8564518210810352e-001 -8.2088633173655534e-001
      3.3222491728300434e-002 9.5068548652849583e-002
      -5.4995123535624291e-001 3.8797279940717772e-001
      6.4153434088548622e-001 -1.1071248377639014e-002
      3.1539058428412037e-001 1.3786737988487707e-001
      3.5994203795029718e-002 4.2785371614916623e-001
      -5.3159773075556604e-001 -1.8022442686399514e-003
      -1.2001458096777540e-001 -7.9109052193332619e-001
      8.9315872627777360e-001 5.3220148109052690e-001
      3.9839262612522304e-002 -6.6798152276390743e-001
      -3.8733863415347070e-002 9.4928351069254749e-002
      -4.8644795481913422e-001 -6.0739597141807398e-002
      -2.7853927792696347e-002 6.1650622402340693e-001
      -9.4559463392156380e-003 2.7150218133821841e-001
      -2.8005494845908269e-001 1.6736648634118470e-001
      3.5975897346459890e-001 -5.6816938247220194e-001
      -8.7383692654749379e-002 6.3658555681749440e-001
      -7.1755886910084266e-001 1.2907878924806199e-001
      4.3645941279124600e-001 9.2296138446913575e-002
      3.2455747351640146e-001 1.5875421204040194e-001
      -1.1322781717728068e-002 2.3610294873772988e-001
      -2.6460865944642747e-001 8.8420688381296471e-003
      2.0645214789885565e-002 -7.2687634046599803e-001
      4.4251443417614844e-001 4.4480183045477828e-001
      9.7857248259194396e-002 -6.5608397615735470e-001
      -1.7596182146075195e-001 3.6959028151838869e-001
      -2.3398694837633671e-001 1.0696762563396603e-001
      -6.7211889544573133e-002 5.6314788879391009e-001
      8.5922119264287264e-002 9.2056691990563808e-002
      -4.3241236207488998e-001 2.9596049552555276e-001
      1.0952803379020570e-001 -3.1710865698508106e-001
      2.7170149462438919e-001 4.7868331530114661e-001
      -2.4123368704725583e+000 3.2144411496013298e-001
      4.4433659137438053e-001 2.6875943449308742e-001
      2.8731313171521783e-001 5.2032065356310990e-002
      1.3761034093582131e-001 2.5701195697812934e-001
      -3.0804926207391492e-001 2.2756750204886467e-001
      4.5516661378572598e-001 -2.3759458879095199e-001
      4.8415910151713332e-001 9.1170385913599983e-003
      9.0128238163950464e-002 -6.1859824873549962e-001
      -1.9804289560793095e-001 3.5945676184714603e-001
      -1.8975553871288475e-001 -2.3243823188914245e-001
      2.6393776677551113e-002 1.0982034223463812e-001
      2.9252530072283078e-001 8.2806484854827431e-002
      -6.2090517557356761e-001 4.7756314782350767e-001
      -2.5318461661730041e-001 -1.3642505622456377e-001
      3.1900913121479957e-001 1.7131935882486529e-001
      -5.3663060835034537e+000 3.1192571759293442e-001
      3.3510745146937754e-001 1.7415287592786863e-001
      -6.1851093138026211e-002 6.8650791868068523e-002
      1.5292323220082654e-001 1.1643894729106193e-001
      -2.5684856754892977e-002 4.2628912713006273e-001
      1.0855724474715167e-001 -2.2839632239775856e-001
      3.8742424155726089e-002 4.8837929846110051e-001
      -7.6613025257412440e-002 -5.5903308916663808e-001
      5.2273658808169580e-002 -2.5805066685560901e-002
      2.1308441328487290e-001 -3.8473461337339510e-001
      -3.0163830093905586e-001 -4.1009171008822864e-001
      -8.1773891242699973e-003 2.7273408201660077e-001
      -4.3231804671466573e-001 2.5847860990549754e-001
      -2.2015109312824438e-001 -7.5100174752625593e-002
      1.5712347407028127e-001 -6.5250264749497397e-002
      -6.4731742058707864e+000 7.8021555651738150e-001
      1.9131177723291557e-003 -2.3575076832973260e-001
      2.3763654520688865e-001 1.3282236828788135e-001
      7.0050353364989174e-002 4.7949939006911947e-002
      -1.4634211474852890e-001 5.9745175635039371e-001
      2.7078809554497674e-001 -1.4549450261862121e-001
      -2.1686977044469011e-001 6.3258653896550687e-001
      -9.9757623514883889e-002 -4.7802001820617335e-001
      2.1492409909269908e-001 1.8861340462136514e-001
      1.7745134339079280e-001 -7.2729252880415776e-002
      -2.5799036182007362e-001 -6.0728500125396245e-001
      -3.6938662061742587e-002 1.4357922764625425e-001
      -1.8811455158631582e-001 2.9261956948410933e-001
      -4.1700817437110710e-001 1.2127432279977678e-001
      -9.7345006143256751e-002 2.5029858031358149e-001
      -7.4638594572364783e+000 5.5074100314700658e-001
      -3.1529670348051375e-002 -6.2731876092408878e-001
      1.1319011135068742e-001 -2.6277647335510324e-001
      1.4418799666589588e-001 7.7877808987802569e-002
      -1.2909303552418252e-002 3.4318945690464586e-001
      -2.8366949407871517e-001 -3.6588716455373704e-002
      -3.5657345427472747e-001 3.7292057487921171e-001
      -9.6253888493226872e-002 -5.6053188339248361e-001
      1.1585370764631470e-001 2.5457204728314829e-002
      3.2290863616160148e-001 -1.1196492087123314e-001
      -2.1480979093535257e-001 -4.9960280917000999e-001
      1.0873775388762920e-001 -5.7183476723756892e-002
      1.5048672019344886e-001 1.0541445513458565e-001
      2.3023855023339287e-001 6.1382595115489025e-001
      4.7010525667485530e-002 1.3167398916087411e-001
      -3.6217644523840087e+000 4.6950209938970627e-001
      1.1694587223854425e-001 -8.3644502616470195e-001
      -2.7440229576201430e-002 -8.3347961211314894e-002
      -1.3592531918218900e-002 -4.7067276207564568e-002
      -1.6999599412382263e-001 -1.3665980246132198e-001
      1.1723023818230462e-001 1.0912197174897395e-001
      -1.1818239391726779e-001 -1.6122876186066520e-001
      -1.9072294460566120e-002 -1.4116181448453149e-001
      -3.2824370813981284e-002 4.0687202356280278e-001
      1.1542473171702713e-001 -2.2609561695445493e-001
      -2.2020077578963312e-001 -9.9845618537491132e-002
      2.4769446046826588e-001 2.7542073170499753e-001
      -6.6430009452425803e-002 1.8376151455303746e-001
      1.9281065925060317e-001 3.4754040043422452e-001
      9.0901412158321773e-002 1.4689040233895156e-001
      -1.8216937036065008e+000 3.4604239925656044e-001
      2.3311264734033307e-001 -1.7874413411774803e-001
      2.2579871106469981e-001 2.8564301796939973e-001
      1.0608189191794996e-001 9.4461703915427143e-004
      -4.1349386564582880e-001 -3.5916867389063800e-001
      -5.6667197830694717e-002 6.0333596054130689e-001
      2.7141206144523133e-001 5.2642007028887855e-002
      -1.4780493878719800e-001 -1.1054571649028536e-001
      -4.5297578411658851e-001 3.4267333500625080e-001
      -1.8611684843437568e-001 -3.4247555040632111e-001
      1.7394970861591069e-001 -1.8838059183715225e-001
      3.5109851375671597e-001 6.2845685805120177e-002
      -1.6479900552481608e-001 2.7217778407534732e-001
      4.5646124548231831e-001 6.2280441856229413e-002
      -1.2375951344752956e-001 -6.7442353090540474e-002
      -9.5731291672396968e-001 9.6885362009121956e-002
      6.0711187557534474e-001 -1.8815384351820885e-001
      1.2113829950016118e-001 4.5077825464343763e-001
      1.0077478805802424e-002 -2.8290668271201241e-001
      -5.7961019423741011e-001 -4.0122689945279311e-001
      -3.2343771440997582e-001 2.7074046171585275e-001
      7.2130162089324656e-001 -8.2699713309968809e-002
      -8.8124416753968728e-003 -3.8687312533641260e-001
      -5.7588119780199931e-001 4.6421864792247025e-001
      -2.3588761458510021e-001 -1.4011399452509682e-001
      3.9018486784009510e-001 -9.2080585494851805e-002
      4.0496154230817100e-001 3.0918399328918317e-001
      -2.2700964198213175e-001 3.9679781506196726e-001
      6.4545860324276727e-001 -1.6879155941266208e-001
      -3.2748688151058442e-001 -4.0728393218224850e-002
      -6.0431298954140134e-001 -2.4767737292139891e-001
      5.7722945029897466e-001 -3.4453313581565964e-001
      3.4019174770024102e-001 2.3052993469259522e-001
      -2.6057926239477452e-001 -3.2555628114034112e-002
      -5.9144260391676196e-001 -3.8690141777503995e-001
      -1.5979515192175833e-001 -1.4452302060152201e-003
      6.9262806827222922e-001 8.8988098692931086e-003
      6.0690672985923688e-003 -3.4210771525885725e-001
      -5.5417118091301809e-001 3.7216652784876186e-001
      -4.6199241309542077e-001 -1.4115723410155487e-001
      4.7414379299418841e-001 2.0176781487824344e-001
      4.4090970997126888e-001 3.0360419371355069e-001
      -3.5506812977204477e-001 2.8299561506809728e-001
      7.2911976774041742e-001 -8.9533339370886436e-002
      -6.9186826835052839e-002 2.6333774668684162e-001
      -1.6157475964182982e-001 -6.3389077574956987e-001
      2.3959111225723065e-001 -2.7709700609515320e-001
      4.4459165220467967e-001 2.0484883776050106e-001
      -3.5725715700883354e-001 3.5376370794430506e-001
      -4.7981963316762738e-001 -3.7775583606102558e-001
      3.5765252254547554e-002 -3.8688787745188535e-001
      3.0951648676988464e-001 -1.7569426714993341e-001
      3.4284519463248653e-001 -1.6625648332849499e-001
      -4.6757334505952131e-001 2.8276819820433019e-001
      -5.5994545083137759e-001 -5.2881480439851314e-004
      3.7738637914706485e-001 2.3844547069504113e-001
      4.1801884880516321e-001 4.6748490039593482e-001
      2.8135034019118502e-002 2.7462288847056854e-001
      8.0142198689170496e-001 -1.1178599745008084e-002
      -2.0736435722377744e-001 3.2345965226075585e-001
      1.0786959976161508e+000 -3.9754887398516825e-001
      -7.7100492632127149e-002 -4.7030262849377685e-001
      5.3092999660312168e-001 4.5078058590544381e-002
      -5.4871678655204381e-001 1.8528540417356212e-001
      -4.8327509922774836e-001 -3.0955363230248867e-001
      3.6514561378600313e-001 -3.8690456724359457e-001
      2.1624176055868599e-001 -3.2491344169918263e-001
      2.8075717914899972e-001 -2.8845644220345945e-001
      -3.1383017341176250e-001 1.8612921017556364e-001
      -3.5601535112559674e-001 -1.5805049142825950e-001
      1.8488699512651319e-001 1.2917614353422835e-001
      4.6884081026132013e-001 1.0255023250517846e-001
      -1.2506784957969549e-001 1.6182589030910813e-001
      2.5442423058748986e-001 1.5200043926861395e-001
      -1.2094108203825887e-001 -7.3467205233946759e-002
      3.2241520608853153e-001 -9.9216778317198606e-002
      -1.8482616056283849e-001 -2.4776629847099518e-001
      1.7556082896779018e-001 3.2058698706394322e-002
      1.5080767164045454e-002 -4.7811178806508217e-002
      9.3497399910776879e-002 6.5011713161240103e-002
      4.0204444267262907e-001 1.9541200705216624e-001
      -1.4976301822299121e-001 -6.0580717801851418e-002
      5.3068159475038360e-002 -3.7358050255391226e-002
      1.1203231176761207e-001 -1.9833329432806648e-001
      -2.7653647426990845e-002 -4.4172376138876618e-001
      -2.6586472250726473e-001 1.4893250729516408e-001
      8.8236941349640607e-002 -4.2224747714269573e-001
      6.0311916290552124e-002 -1.1163795996430760e-001
      -1.4935902190167491e-001 3.2356448754890238e-001
      1.7572913066475149e-001 -3.9985265143252752e-001
      2.8078235974994099e+000 -1.2790912599469909e-001
      -1.6523359169014518e-001 -3.4889689495205278e-001
      1.8938441456018932e-003 -1.7013088968349135e-001
      -2.1830215991050722e-001 -9.3695601164622860e-002
      -1.0933979703507277e-001 -1.0833258410457162e-001
      9.2159084347133782e-002 8.6739261436083445e-002
      -6.4884668396301956e-002 -4.5255985633035195e-001
      1.8429865740436951e-002 1.9337770309305036e-001
      -3.2456805082446100e-001 -4.3362615607158622e-001
      1.5154674857234285e-001 -2.3156877485928831e-001
      -6.0642510369633647e-002 3.7494364244822315e-001
      1.1712313980238687e-001 1.4811734608487040e-001
      -1.2657658023475291e-001 7.2992358811110866e-002
      2.2032358437296956e-001 5.0422086901659002e-001
      1.3389050873646119e-001 -6.4082303116569839e-001
      1.0633046589848338e+000 -5.1555838725890535e-001
      -2.4615541942351099e-001 -1.2167205891867230e-001
      1.2952691026644803e-001 -2.8912123787155020e-001
      1.5469004825529720e-001 -3.3770547932710848e-001
      -1.8502600117411708e-001 -3.3354942213951710e-001
      -8.7481168977859458e-001 1.2467925188020676e-001
      3.3874506267863513e-001 -3.3415761157682289e-001
      -1.3172392038062147e-001 1.5642606646193483e-001
      -2.9270004083820195e-001 -4.0493565716957047e-001
      2.1596452896672963e-001 -1.7515799462679599e-001
      2.1223993131877861e-001 5.3325206395286417e-001
      1.3848911684445123e-001 2.4415256381545711e-001
      -9.9332625804134753e-002 1.2944266464574819e-001
      5.9960817337831651e-001 3.6536369122991835e-001
      4.7630537690246266e-001 -7.0877599778124889e-001
      1.6519140740755633e+000 -4.3463438477577243e-001
      -1.8853258581687635e-001 -2.6568479961834179e-001
      3.3383039586102309e-001 3.0383901513737949e-001
      1.4319028839316084e-001 -1.8508980724098616e-002
      -8.3584727496775479e-002 -1.2205577208920851e-001
      -3.6782385419805853e-003 -1.6235967039145671e-001
      -5.0261417926369534e-001 1.5702635714789165e-001
      -4.1306815524568408e-001 1.1940911773100302e-001
      -2.6280840888665719e-001 8.5889321687293352e-002
      1.3114120551376909e-001 3.0308110420440414e-002
      2.5060878636321177e-001 -6.8317888207155716e-002
      2.6278135399217534e-001 5.6400340411956829e-001
      7.9105971553384080e-001 2.3022585396767877e-002
      1.0194664685910895e-001 -4.3390862415381448e-001
      -4.5019941532077071e-002 -4.8485819791369167e-001
      9.6546441163767749e-001 -7.4454745396097932e-001
      5.1830190512944574e-002 -3.0973166189524004e-001
      1.2778129309016784e-001 2.8680187129700285e-001
      -5.4710415931555935e-002 -3.2386707799316808e-002
      -3.7672807199748892e-001 3.8889620939362282e-002
      3.6960294973776886e-001 -3.3704246412200045e-001
      -2.4262220328073530e-001 3.8269121298380449e-002
      -2.3117524158097935e-001 -3.7333476851737923e-001
      6.4487856473472091e-002 2.8005881987866427e-001
      6.3103819899276839e-002 -1.4987428542679804e-001
      9.1393118985569927e-002 1.7704807533900502e-001
      2.7921482334551984e-001 6.4818434988920015e-001
      1.2724161942546741e-001 3.3051500904595521e-002
      -8.2009478934324295e-002 -3.3629723634217157e-001
      -2.6861806564627883e-001 -5.5369761367308101e-001
      3.0945481694629878e-001 -2.5237317412136151e-001
      1.9354689664675842e-001 3.7082327432528450e-001
      -4.7400943245678182e-003 -4.4813733093333238e-002
      1.0989864116147624e-001 2.2767620082598242e-001
      -1.7601011489545421e-001 2.3941023920306270e-001
      5.5986454565639776e-001 -7.2471873402027973e-002
      -6.5445386079030665e-002 -1.2463399605162008e-001
      -3.6444384428029403e-001 -2.6910894433142651e-001
      3.4079294806693089e-001 7.4696821674667097e-002
      -8.0274682495274807e-002 -1.1361405993992557e-001
      -1.6024010753913842e-001 -1.7761859539156577e-001
      1.4126092319900521e-001 3.4923819550193147e-001
      7.8936484588488398e-002 -6.4867217700128571e-002
      -5.4039892125171263e-001 -4.0181842485035979e-001
